<?xml version="1.0"?>
<opencv_storage>
<ann type_id="opencv-ml-ann-mlp">
  <layer_sizes type_id="opencv-matrix">
    <rows>1</rows>
    <cols>3</cols>
    <dt>i</dt>
    <data>
      120 40 10</data></layer_sizes>
  <activation_function>SIGMOID_SYM</activation_function>
  <f_param1>1.</f_param1>
  <f_param2>1.</f_param2>
  <min_val>-9.4999999999999996e-001</min_val>
  <max_val>9.4999999999999996e-001</max_val>
  <min_val1>-9.7999999999999998e-001</min_val1>
  <max_val1>9.7999999999999998e-001</max_val1>
  <training_params>
    <train_method>BACKPROP</train_method>
    <dw_scale>1.0000000000000001e-001</dw_scale>
    <moment_scale>1.0000000000000001e-001</moment_scale>
    <term_criteria><epsilon>9.9999997764825821e-003</epsilon>
      <iterations>1000</iterations></term_criteria></training_params>
  <input_scale>
    5.8203688755764483e+002 -5.8201970143522146e+002
    4.3743467896341230e+001 -4.3564360831581084e+001
    7.9265690261857884e+000 -7.1728428908651072e+000
    5.5668528391890462e+000 -4.0991981770426023e+000
    6.7478364484848887e+000 -4.9421260942843324e+000
    5.6019370629091378e+000 -3.8664944938077537e+000
    4.9405159359444779e+000 -3.2566558837000574e+000
    7.1965106817224367e+000 -6.4481019647643549e+000
    3.7104348006435465e+001 -3.6906044304382981e+001 1. -1. 1. -1.
    7.6184602350487500e+000 -6.1269367850058103e+000
    8.1960526060785170e+000 -6.7396400019200726e+000
    9.3755155917419000e+000 -8.0359059253607708e+000
    7.9812594903599940e+000 -6.4948285965355552e+000
    7.9816890222488404e+000 -6.6337578656459701e+000
    7.0281728137793404e+000 -5.9031118994786702e+000
    8.2388465699634459e+000 -6.9180363524711659e+000
    7.8299938352639868e+000 -6.2754010638347895e+000 1. -1. 1. -255. 1.
    -255. 1. -255. 1. -255. 1. -255. 1. -255. 1. -255. 1. -255. 1. -255.
    1. -255. 1. -255. 4.5131767732544642e-001 -1.1507205951418173e+002
    3.1943261366754953e-002 -7.9887644341259447e+000
    1.0472415581458963e-002 -2.1692629664905394e+000
    8.0809415156253995e-003 -1.0306533025429321e+000
    9.3445486667458073e-003 -6.2730801359783250e-001
    8.4382543024932068e-003 -8.7037021821801996e-001
    9.1551590333049972e-003 -1.6631346603144883e+000
    3.1411251800532114e-002 -7.8603596888776250e+000 1. -255. 1. -255.
    2.6126762584964947e-001 -6.6604729563057091e+001
    1.6452179204391064e-002 -3.9005704123235767e+000
    8.3624253047532848e-003 -1.3042527410867142e+000
    8.2766850911435933e-003 -1.1796744596988495e+000
    8.5921705332578664e-003 -1.4237404167684267e+000
    8.2788667951644423e-003 -8.8149886080788609e-001
    8.7310251414269881e-003 -1.4947893157385035e+000
    2.2306959434087219e-002 -5.4796079800410942e+000 1. -255. 1. -255.
    1.3595567755963350e-001 -3.4630935285376495e+001
    1.3308143339437147e-002 -3.0405544720586000e+000
    8.2514754691980947e-003 -1.2435793806709863e+000
    9.2843010411652223e-003 -1.7443620766506813e+000
    9.2831882550879589e-003 -1.7517741717203541e+000
    8.1813116105692602e-003 -1.0972209848557044e+000
    9.1900044494972778e-003 -1.7170537378368935e+000
    2.7958584977854715e-002 -6.9682810423211530e+000 1. -255. 1. -255.
    5.8788564079669273e-002 -1.4916330940773809e+001
    1.2683844068438728e-002 -2.8520434854286498e+000
    8.2717823398907962e-003 -1.2619230856393342e+000
    8.2486407192579429e-003 -1.2552076739859619e+000
    8.2069404615448972e-003 -8.7223217826747690e-001
    8.2917647453665828e-003 -9.0805025443980325e-001
    1.1303621966872018e-002 -2.4324671307917396e+000
    3.7093239335189591e-002 -9.3422463047744699e+000 1. -255. 1. -255.
    3.9569052715825954e-002 -9.9806898858376716e+000
    1.1343406332696161e-002 -2.4392153131411032e+000
    8.2562389960781461e-003 -1.2586611970862682e+000
    9.0834769830976225e-003 -1.6877699243412181e+000
    8.1227902220218084e-003 -1.0804574185106997e+000
    8.3250657377865328e-003 -8.4310054768848031e-001
    1.2216630492054393e-002 -2.6877272464348452e+000
    4.1791996815650809e-002 -1.0550648739398387e+001 1. -255. 1. -255.
    2.9507995042819500e-002 -7.3670862816614555e+000
    9.3087433477167438e-003 -1.7498330199445693e+000
    8.5984544830427657e-003 -1.4461500244530299e+000
    8.8390360408549199e-003 -1.5846964847718719e+000
    8.6788657092826751e-003 -1.5036220263238822e+000
    8.1495950122079108e-003 -9.3944456503226692e-001
    1.1135541603383656e-002 -2.3511326073201655e+000
    6.3096672054060235e-002 -1.6014047152763105e+001 1. -255.
    1.2600223272639607e+001 -3.2130470130874519e+003
    2.3489865756676463e-002 -5.7949313862147944e+000
    9.0255676144006449e-003 -1.6294036659617850e+000
    8.1643260565284256e-003 -1.1371580297335311e+000
    9.2151946218709240e-003 -1.7232386732678286e+000
    8.2550841545324521e-003 -1.1633907974164808e+000
    8.1779599282008515e-003 -1.1523582652843398e+000
    1.7618015122636495e-002 -4.2269069051852002e+000
    1.1110556878304038e-001 -2.8291556786291615e+001 1. -255.
    2.1621042249203440e-001 -5.5111930290452591e+001
    3.3441903002526814e-002 -8.3808897941771434e+000
    9.5057698984677731e-003 -1.8095552207989001e+000
    8.3645164040649107e-003 -8.9444260211770443e-001
    9.0136623342777274e-003 -6.4559735449221500e-001
    8.1393295972593104e-003 -9.2530798898370425e-001
    1.0495819587210893e-002 -2.1655427449595246e+000
    2.6086336566893568e-002 -6.4733603648140026e+000
    1.5847526423439248e-001 -4.0380448802426976e+001 1. -255. 1. -255.
    1. -255. 1. -255. 1. -255. 1. -255. 1. -255. 1. -255. 1. -255. 1.
    -255. 1. -255.</input_scale>
  <output_scale>
    5.2631578947368418e-001 4.9999999999999994e-001
    5.2631578947368418e-001 4.9999999999999994e-001
    5.2631578947368418e-001 4.9999999999999994e-001
    5.2631578947368418e-001 4.9999999999999994e-001
    5.2631578947368418e-001 4.9999999999999994e-001
    5.2631578947368418e-001 4.9999999999999994e-001
    5.2631578947368418e-001 4.9999999999999994e-001
    5.2631578947368418e-001 4.9999999999999994e-001
    5.2631578947368418e-001 4.9999999999999994e-001
    5.2631578947368418e-001 4.9999999999999994e-001</output_scale>
  <inv_output_scale>
    1.8999999999999999e+000 -9.4999999999999996e-001
    1.8999999999999999e+000 -9.4999999999999996e-001
    1.8999999999999999e+000 -9.4999999999999996e-001
    1.8999999999999999e+000 -9.4999999999999996e-001
    1.8999999999999999e+000 -9.4999999999999996e-001
    1.8999999999999999e+000 -9.4999999999999996e-001
    1.8999999999999999e+000 -9.4999999999999996e-001
    1.8999999999999999e+000 -9.4999999999999996e-001
    1.8999999999999999e+000 -9.4999999999999996e-001
    1.8999999999999999e+000 -9.4999999999999996e-001</inv_output_scale>
  <weights>
    <_>
      1.3361725190001281e+000 2.2517886459736999e-002
      2.2868216331403693e-001 1.1699525359615202e-001
      -3.6367300647142452e-003 4.9770110787029913e-002
      2.7047740426103806e-002 -2.1228646829558365e-001
      1.1167096118787463e-001 2.4917364700606310e-002
      1.9604152562548358e-002 -5.1854858804499526e-002
      4.1185686388409845e-002 4.0133066622690880e-002
      -2.0699558028898373e-002 -4.9844004953898610e-002
      4.6658112209196273e-002 2.4346986499996479e-002
      -2.2116230051656211e-002 3.2658693461565191e-001
      6.0511497145179220e-002 -4.2669382804976669e-001
      -8.6964621396886446e-003 1.3155553024878801e-002
      1.7741084204192552e-002 6.0243683293492507e-002
      -1.1209637232046986e-002 -2.6523427361495121e-002
      -4.5665454270075165e-002 4.3749821650972014e-002
      1.5977772630639691e-002 -7.9451429436585536e-002
      -1.2395246318608307e-002 9.2668806522584232e-002
      4.2961491030305915e-002 2.9726934835518921e-002
      -5.3065454488375997e-002 2.4656972370996153e-002
      5.0161305792910862e-003 2.0484777895001249e-002
      -4.1149008280192749e+000 5.4961234282669524e-001
      2.2439340914956188e-001 1.4826120218533556e-001
      2.5421797758762082e-001 6.5945417573179177e-001
      1.1897516409751295e-001 1.8194426190046303e-001
      -1.6413854722211091e-001 -3.5111892506037562e-001
      4.2285350808555562e-002 4.5997343344538794e-001
      8.3396474439305979e-002 -1.3621374607494390e+000
      1.3199244910616842e-001 2.3565085083472789e-001
      9.7180947671671958e-002 1.4894113636841483e-001
      3.9330435755791443e-001 -6.5433081189502737e-002
      -3.6121100680171514e-001 4.2983544909644011e-002
      5.4678926427686436e-001 9.1372778736128382e-002
      -1.3125064143189500e+000 7.7432811365397314e-002
      1.0149552931830376e-002 -2.4526648766825734e-001
      -7.1816010871229452e-001 2.6365307067929478e-001
      -4.1437678144286533e-001 4.2647248990887382e-001
      4.3083334263931244e-001 1.4024278228893469e-001
      8.7963795317999735e-002 1.8121691044104116e-001
      2.8219192298256945e-001 1.2572108424952272e-001
      5.5270320216381819e-001 -4.5582029735315721e-001
      1.5489158866261405e+000 -6.9869794189107959e-001
      2.6192574140509378e-001 7.9207311629384580e-001
      -2.4879081325796132e-001 6.3251153641195601e-001
      -5.8506348913978756e-001 -1.2405654169849296e-003
      8.5724652359101469e-002 3.6179572236366453e-001
      -1.3174520689523769e-001 1.2526514996318305e-001
      -4.0540365127098510e-001 -2.5368401093136828e-001
      6.5492024895366430e-001 2.8514005813861015e-002
      -4.5141538449628954e-001 8.4079642994476289e-001
      2.6008640243112291e-001 -9.1585338199776600e-002
      -9.6237102769882954e-001 3.5620035947775575e-001
      8.1129695124406009e-001 2.5587279141711627e-001
      -2.7545345042598907e-001 -1.0751851795240580e-001
      -3.0882091088791200e-002 1.7091740607506364e-001
      4.4851569839911681e-001 1.5963111715647468e-001
      -2.8711746615659545e-001 -9.5015801131146238e-001
      -1.1937998996231727e-001 -9.0680018063415846e-001
      -2.3045326068324473e-001 -2.8095357865298761e-003
      5.9211952578713201e-001 -1.4584165729475324e-001
      6.1807874754137371e-001 -1.0939545868997876e-001
      5.0923228949797732e+000 -8.7029205428775191e-001
      -4.5987529083528317e-001 3.4669330132795051e-002
      1.3916044100453995e-001 1.9307595671867031e-001
      3.9799493227885802e-001 -7.3706647007476778e-001
      8.2434005368808994e-001 4.4078273030438764e-001
      -3.4006003196543100e-001 3.5589891799709346e-002
      8.7134291550698117e-001 1.6866643801583778e-001
      1.6608220764628179e+000 -4.9312539976547437e-001
      1.8968906431596130e-001 2.3414714417393193e-001
      2.9438653047258007e-001 -2.8890236658908236e-001
      4.3540870962435058e-001 -4.7100629249401654e-001
      1.2891066658816140e-002 -4.7024235094542739e-002
      -9.5107406066019251e-002 -1.9842195766203272e-001
      8.2976614676048499e-001 -2.2477797189641693e-001
      -6.4683114090231822e-002 -4.3406152970123651e-001
      -7.8214066765260715e-002 -4.7327931842070253e-001
      3.6698009960770356e-002 3.7867791520482774e-001
      1.1406429832968109e-002 3.6674967156843563e-001
      -1.0796821404832953e-001 -4.1279463538726352e-001
      7.9409046868058650e-002 -6.9362258616906469e-001
      9.7586278545773890e+000 1.6665705867048433e-001
      6.5558569444736148e-001 1.4595141080885585e-001
      4.9058762625909613e-001 -2.7459936725178369e-001
      -1.2448760208478547e-001 3.4929583180988855e-001
      1.8654781074927326e-001 -4.8951863286482061e-001
      -5.8829366130605625e-002 1.0850384059136164e+000
      3.7555121545357201e-001 -2.6247365057664485e-001
      1.4052853928839090e-001 -4.8777921925445577e-004
      -6.3891202355339169e-002 1.8990439126569067e-001
      4.3466819058915912e-001 -8.9258166379879289e-001
      -7.4059493925930170e-002 -2.0094860084516612e-002
      -9.5372516662809131e-002 -4.9277167969978419e-001
      -4.3126030509854217e-002 1.3146625517289814e-001
      2.1419603493531644e-001 1.0809369796487596e-001
      2.9086114517820066e-001 5.3804418730020143e-001
      2.3855238146418895e-002 -3.5722130063665225e-001
      1.4940507880224832e-001 -7.9699482847047184e-002
      3.0040153493815558e-001 2.3552491028810180e-001
      -1.7698195359726362e-001 -4.7086632878048784e-001
      -4.1769077145598521e-001 4.6165583342181826e-001
      8.9745045871497897e+000 1.8220479683850335e-001
      1.8271044933804295e-001 8.4784920235911898e-001
      -3.4537789492639503e-001 3.6096511603231107e-001
      3.5292661746985771e-001 7.9155056774392926e-004
      -5.1059402451421454e-001 -3.8852667471264907e-001
      3.4468760538771853e-001 -3.9529140528923634e-001
      1.5781767985955289e-001 6.2989575913945561e-001
      -6.4396060755011053e-001 -2.7001728510529721e-001
      -1.4912452583021943e-001 -1.4724553654120880e+000
      -8.5570210999025076e-001 -2.5856693564209138e-001
      3.8946992249295698e-001 4.0465495321807932e-001
      1.8761659021052132e-002 7.3689267670410508e-002
      -9.7963493042843471e-003 2.2827920377737088e-001
      1.7529796068778647e-001 -3.4765528512644517e-001
      -1.9643377102860055e-001 1.4055371180133736e-001
      -2.3552002035544639e-001 1.3516328937975235e+000
      -2.1380393947574769e-001 -3.0156672414382363e-001
      1.8671791022182294e-001 -2.5562714128070352e-001
      2.6189641874684799e-001 4.2910192452368090e-001
      -9.7045148158737937e-001 2.7576966110056589e-001
      8.1387659502056078e+000 -1.3887746850775670e-001
      -1.8302331260269858e-001 3.0463900862664156e-001
      -1.3522925893205812e-001 -6.1614496372923111e-001
      -2.4016838895921414e-001 7.1304489256827405e-002
      -3.8944328971489367e-001 8.0579908079286278e-001
      9.5168189358680252e-003 -5.2322006255526177e-001
      -1.9755337174257759e-001 -4.3340339402112421e-001
      -1.3018560119461751e+000 1.2510768106944141e-002
      1.0585860872424310e-001 -5.4562107931363646e-001
      5.9806735379687212e-002 -3.6580656930454047e-001
      3.4062558142511734e-003 1.7502401643576898e-001
      -1.0053531699472829e+000 5.2582697831371383e-001
      2.7076956168901217e-001 2.7742131684592125e-001
      -3.3783006581224108e-002 -2.4646285321354044e-001
      -1.0803450742018721e-001 8.5386988326032101e-002
      -5.1360130433277662e-001 4.4134385162335504e-001
      -1.7260690345168767e-001 -5.8780617580928629e-001
      -1.5331408704609489e-001 -5.5898671360328123e-001
      -4.5212667361020031e-001 3.2850737313223188e-001
      9.4649399758747133e-001 5.4640914733390988e-001
      4.5190334038495310e+000 1.5750467508572927e-001
      1.4766850465425788e-001 -8.6439435751896909e-001
      -9.1752794017999739e-001 3.7201607564583744e-001
      1.7140425977915014e-001 4.5420779497632235e-001
      -1.1253991774472558e+000 -6.2216664227152363e-001
      2.0299938757195665e-001 6.3503007249301441e-002
      -9.0256794621867065e-001 -2.1970273372527986e-002
      -6.7896862409446013e-001 -1.2224988798665010e-001
      5.2843464975801624e-001 -2.0728461679362872e-001
      1.0668833757751425e-002 -3.7081621321202735e-001
      -4.4655374497957878e-001 1.1563168993973005e+000
      -3.8586078247844557e-001 6.3533311869876785e-001
      6.3607287821038672e-001 7.3253102938012918e-002
      2.3789709525992742e-001 4.7171926796963699e-002
      -3.8281950866549236e-001 1.6374544134765623e-001
      -4.9729475252899263e-001 3.9039105671162389e-001
      -2.3268257705860937e-001 3.0061711514245631e-001
      -5.7600256281886870e-002 -1.2753124387736714e-001
      3.6936741211181473e-001 1.6968928682328682e-001
      -1.7579792321561841e-001 -1.7834328322198983e-001
      -4.4207112324451154e+000 2.6756842775951289e-001
      1.2041928565486389e-001 -1.6588231508290704e-001
      8.6150286113815810e-003 3.8657387734505055e-001
      -3.6147273560432736e-001 4.9109673137096194e-001
      2.8699963153016372e-001 -9.7174558350423057e-001
      -4.7095484302910195e-001 1.5608694610673549e-001
      -3.8135726628329608e-001 -3.4793353567840046e-001
      -4.8432036922131655e-001 1.3667464354283425e+000
      3.0818361236789893e-001 -4.4777126026919772e-002
      1.9702437089083311e-001 2.3976350315099695e-001
      5.0053695511892204e-001 4.4264073878862727e-002
      4.5924834882809040e-001 -4.8993416221695379e-001
      -3.0757482367952177e-001 -8.2262659523770806e-002
      3.0712290907565165e-001 -1.1156773933712483e+000
      -5.7126443897515344e-001 1.3649602829628649e-002
      -1.9588413271630181e-001 -1.7855713160709583e+000
      2.9538505684406802e-001 -2.7296561140875014e-001
      -8.4591731378167265e-002 4.4230430956070982e-001
      -6.2071801371565150e-002 8.0425180343219216e-002
      4.7268931400413466e-001 -2.1854836268081759e-001
      4.6741335681730577e-003 -8.6527657919871197e-003
      9.1049517903115974e-003 9.5290533449558963e-004
      -2.3472636976152521e-003 -1.4667330843699313e-002
      -2.6620571113173193e-003 -8.6505136424466327e-003
      1.1647058162788730e-002 -1.6186530135859068e-002
      1.0471709444641644e-002 -5.7866887388894877e-003
      1.1595570364816498e-002 -2.1969642292381754e-003
      1.1527879216809490e-002 -2.4215172999729928e-003
      -9.1713195188953978e-003 9.7838801289164019e-003
      -2.8854234588568646e-003 1.7648604616760373e-003
      9.8847402321821792e-003 5.7684655843203104e-003
      -8.9586120338264758e-003 9.5176174543309799e-003
      1.4747309074831124e-002 -4.2155820493467618e-003
      3.0059037496484049e-003 -1.6220195196475897e-003
      -7.0077173377841463e-003 -5.5543767927191704e-003
      9.2621679886402651e-003 -8.5288975225368217e-003
      8.1157934515910046e-005 -2.4702113407106814e-003
      1.4926428422281368e-002 -1.0025007283275843e-002
      6.9843659475705127e-003 -1.4116992268615288e-002
      -1.9421459223566506e-003 1.3351382271256210e-002
      3.8801566040449053e-003 7.9959547964416709e-003
      1.1037549546292795e-002 1.6626733686972660e-002
      1.6179917277283577e-002 -6.5870938740716220e-003
      -6.9132612168845732e-003 9.5770941302443357e-003
      1.1744210034188816e-002 -1.5938949738724816e-003
      -1.3033235961913768e-002 1.1875590452661395e-002
      7.0746021771025732e-003 1.4909773686861718e-002
      -2.3485845451013338e-003 -7.1979273297810705e-004
      -3.1443504021126875e-003 -8.3570039601406510e-003
      1.2941724960332099e-002 2.1409448454332467e-004
      -8.5954072645213989e-003 -1.0420701701324043e-002
      -4.5775279288754007e-003 1.1919694642203431e-002
      5.2342452719992411e-003 -4.4600828652433663e-003
      6.1374580926328000e-003 -4.4085298747106377e-003
      3.9962223719986522e-003 1.0178462750911979e-002
      5.0678994169107549e-003 1.3751443279169131e-002
      1.1801111194280928e-003 -4.5588922769537179e-003
      5.8536579256895935e-003 -3.1548671414049897e-003
      1.2687954610876774e-002 -7.8827555032944772e-003
      -5.7533089489478001e-003 -6.3854785639780804e-003
      6.7448532296933870e+000 -1.5076770847317791e-001
      1.0002010767823544e+000 -2.0831570331463331e-001
      -6.6463992000986072e-002 -1.3471710629439845e-001
      -7.8568021750769212e-002 8.0230892586179159e-002
      -7.3482975460431588e-001 1.4201732853184529e-001
      1.6346595604668952e-002 3.5507235982928509e-001
      -4.1321124635140033e-001 -1.9766317392874053e-001
      -4.9235481024969777e-003 3.9176765657833639e-003
      1.2782321158910251e-001 -1.1180630845281732e+000
      -1.1928208542047731e-002 2.0969905453144458e-001
      3.0586678644655285e-001 4.0969250663795481e-001
      -9.0855504623533068e-001 -5.4903387246430124e-002
      -3.4204788637723471e-001 2.4873187570269178e-001
      6.8629727221250603e-002 -2.1178559043350492e-001
      -4.2520495913886871e-003 6.7766558885639527e-001
      6.9964341289271443e-003 5.3791180964837793e-001
      -2.4044520757271712e-001 2.6784660867389321e-001
      1.3211098781512082e-001 -5.1037955975058358e-001
      4.5415227175606376e-001 -1.8550560563319834e-001
      -1.4123967383095257e-001 7.2774856996470372e-001
      6.6623624633118119e+000 -2.9975085916561328e-001
      -4.3065554946337625e-001 4.7065077406321265e-002
      -2.9937545432160040e-002 1.3725298921891738e-001
      -1.2111038423952352e+000 -1.2638197260392958e-001
      -8.4437881616199570e-002 1.4546401556125274e-001
      1.6092515967116672e-001 2.7464905577295001e-001
      8.1800577442456807e-002 -1.1040808956653745e+000
      1.0886169893567346e+000 9.6558825221024519e-002
      8.6780529509038418e-001 -2.5633749026413144e-001
      -3.8236953568497228e-001 2.5780225816543501e-001
      1.1821250419578187e-001 2.9692237612599348e-001
      -1.1111558872957683e+000 -5.7836632539983404e-002
      -4.9052478437805241e-001 -1.2065325976845416e-001
      4.5676897470599126e-001 5.1209095484974843e-001
      -2.2590738132171032e-001 1.6315084687398265e-001
      -2.5009480376433130e-001 1.2722027818960827e-001
      -4.6870215349510813e-001 -6.3252127431998539e-001
      -7.3709116420873674e-002 2.2104846323647478e-001
      1.0715541774522632e+000 2.0444876623334007e-001
      9.6330375181478034e-001 -4.3991408368438817e-001
      5.5470199377291900e+000 8.6656234019054501e-001
      -1.7564299233194902e-001 -9.1345570742081911e-002
      8.8005962575272301e-001 -6.9200836842235891e-001
      -3.2464376383135168e-001 -5.2624124477962708e-001
      -4.7045682524481902e-001 -1.7000838347752537e-001
      2.4136050197284159e-001 -2.3213604093550308e-001
      -7.3502876910125703e-001 -1.7481262826377539e-001
      -6.4240939731712654e-001 1.0156126329756740e-001
      1.1421336971277081e-001 5.6933574195294234e-001
      -5.3913676016952083e-001 -1.1742293760455043e+000
      3.8964121056823470e-001 6.8712200015416403e-001
      7.6630209830268481e-001 -3.5976342477169693e-001
      1.5501465024586196e+000 -9.4182037783446249e-002
      -6.3728503488077098e-002 9.4287136211111133e-001
      6.5290192486552956e-001 -2.0211490383169753e-001
      9.1716815849605582e-001 -2.8975919520805116e-001
      -6.9686145105794817e-001 1.8585181574115097e+000
      -1.2099286010049541e-001 3.8533715324172180e-001
      -2.6202031227160322e-001 -6.2313301992646108e-001
      8.8493083780633974e-002 1.3788642424321549e+000
      5.1702555000033206e+000 1.9287406820770003e-001
      -1.5612803968285205e-002 4.8467122604683099e-001
      -1.1378789609552309e+000 2.2618948919462301e-001
      6.7556153894359283e-001 -1.5925435986719694e-001
      4.7670835949312562e-001 8.8164895653938447e-001
      1.3285643023417912e-001 5.4293946439510432e-001
      -6.7629822792902439e-001 -1.2764353768936124e-001
      2.7979505483172384e-001 -7.4599162776175246e-002
      -1.2204399147178095e-001 -3.5972967880722884e-001
      4.2407252426757230e-001 -6.0020061920530832e-001
      -4.8382932445522819e-001 1.3247913294264183e-001
      1.6974710945196442e-001 2.8478745825797441e-001
      -3.8856400456748313e-001 3.5156732615996195e-002
      2.0843748748829102e-001 -6.3728343708830526e-001
      2.0405395873555891e-002 7.7855715722431953e-002
      -6.1166663061413835e-002 -4.7830409111184563e-001
      -2.2483370809503447e-001 -6.0648300518149713e-002
      -5.8710831465032323e-002 -5.8844204348245832e-001
      -2.3699588460726262e-001 -5.9867334877828149e-001
      2.2383447887706842e-001 4.4775594245039640e-001
      8.8595626032544033e+000 3.0899599281952966e-001
      3.5598354944163790e-001 6.3396106611437919e-001
      -5.6182219909363978e-002 1.2688428666342572e-001
      5.4886032592399070e-001 2.8928644230577538e-001
      1.3751944026718004e+000 -3.3460990651056799e-001
      -1.8573296277068205e-001 -9.1922802998467934e-001
      7.5088827172948763e-002 2.1910795314064399e-001
      6.0999612993627461e-001 -6.2957949647928879e-001
      8.5726039883470340e-001 1.1232333113943107e+000
      -2.5672076955851564e-001 -5.0433402222047585e-001
      -2.6810336672964308e-001 1.8372401522219700e-001
      1.5875660127096625e-001 5.1111893539671116e-001
      5.0771743469737718e-001 3.7182858848170131e-001
      5.5376767658234105e-001 -5.4488257268762441e-001
      1.1260620469897136e-002 3.6546264437460241e-001
      -7.7300294383391399e-001 -7.8238436145104284e-002
      -9.0751098312180234e-001 -6.6532744429074564e-001
      1.8281669396536301e-001 -8.1433271410173758e-001
      -4.4986601216843647e-001 7.8407365160829434e-001
      -2.8997741861091558e-001 4.4558559712580886e-001
      5.2599731157246499e+000 -9.4581663504075708e-001
      -9.9768972349458848e-002 9.0115593904684510e-001
      -2.2973964779471698e-001 2.8897026040108748e-001
      4.4370467476050840e-001 -4.0959589867263404e-004
      -3.9094385146240501e-001 -4.1475605089844481e-001
      -3.9881499886717346e-002 1.8485217856494049e-001
      1.0286044388629478e+000 1.0713740910272558e+000
      -6.1258747578378048e-001 2.6327204240637075e-001
      -9.2104118027816029e-001 -1.2077278402734108e+000
      2.3733280306769142e-001 -3.4616916544490028e-001
      -9.8884326867822364e-002 4.9350458421044401e-002
      5.7839923744875987e-001 3.4872908293997529e-001
      -1.0283590894289517e-001 3.2288943343258469e-001
      4.7384363391657291e-001 -9.6112101698165309e-001
      -7.6470823443805835e-001 4.1236240374026867e-001
      -4.1582440925965536e-001 9.5711843370395910e-001
      2.9423406268438684e-001 -1.2550794087154851e+000
      -7.8977364701863534e-002 -4.4530523922519619e-002
      -4.0815172452021492e-001 8.9340698820318076e-001
      -3.7146915619222776e-001 -1.9520471561411987e-001
      3.2304368524634466e+000 -5.5134490076970410e-001
      2.3200548197023779e-001 -6.3161302865014812e-002
      -1.0013580742461618e-001 7.4525529615325659e-001
      4.4026312213888023e-002 2.6422879087731238e-001
      -6.2115783591875506e-001 4.1189733705491660e-001
      1.3546351739336895e-001 2.8199579493399685e-001
      5.2765070516043533e-001 -6.1912261709622640e-001
      -8.4761041434029649e-001 -2.9324265835513043e-002
      -1.0287027182210484e-001 -1.1449738638985341e-001
      4.7366850742149844e-002 -2.9620002673621948e-001
      -2.2906656247086829e-001 -5.2055549407935719e-001
      -7.2377752142858431e-001 -3.9172934341734944e-001
      -3.2179224395400396e-001 -4.7256973075276920e-001
      1.4670089770964165e-001 -3.5347375954202859e-001
      1.1517876806224965e-001 -2.4187298118628017e-001
      -7.7671405652760583e-001 3.8870737004803008e-002
      7.1404093087847886e-001 -3.3867721063315520e-001
      1.5093269720708682e-001 1.6490113600733566e-001
      -8.3884308013122688e-002 -9.8423647118905522e-001
      3.6266243268605874e-001 -1.2484086208524774e+000
      8.0447207895763135e+000 -5.0378333907747030e-001
      -3.6097789297350014e-001 -3.9035999391123039e-002
      -3.1341996345210832e-001 -7.0849633443986912e-002
      -1.4731952615657729e-001 1.8057511557257477e-001
      -6.1168030908650750e-001 -4.2645141005051734e-001
      -4.1032318011026647e-001 -2.6564096639350154e-001
      -3.1932649505896880e-002 1.9393701769088140e-001
      -5.5154555411587747e-001 -5.7488603848742648e-001
      -2.6926231483495955e-001 -7.9058856823264079e-002
      6.1698973514855948e-001 -5.6337164551176711e-001
      5.8315568611234228e-002 6.0312304141862361e-001
      -1.0618009882591060e-003 7.1532306456591088e-001
      1.6445094709912772e-001 2.1027989387082496e-001
      4.0168364518247533e-002 2.8481380649552707e-001
      -9.7027405408805667e-002 -6.1546735784652951e-001
      -5.6689323468279840e-001 -2.6890358550011834e-001
      8.5228230139783834e-001 -3.3657893244661291e-001
      -1.2473271192473903e-001 7.2612547561796792e-001
      2.2147023828079226e-001 3.7877300726526431e-001
      -3.3457946195789129e-001 -5.6463083189080354e-001
      -1.4844906311084623e-002 -1.1106998648510800e-002
      1.1084321852093569e-002 -1.4471998812258123e-002
      -1.4501410794356986e-002 -1.4684262955726271e-002
      -8.7365610550955222e-003 -7.8396939947449028e-003
      -1.3341077425611752e-002 8.7097079392165263e-003
      -1.6308682481631159e-003 3.3330197960791713e-003
      5.5036483255992514e-003 8.9314182555454199e-003
      1.3157957909204009e-002 -3.4325776899276042e-003
      1.4312984515805456e-003 -1.0999923438872185e-002
      -9.1554773417654358e-003 -2.8446352990558884e-003
      -6.7189409916412349e-003 -4.8463671454132048e-003
      6.5331262813597257e-003 4.3037699989205463e-005
      -8.7980188722379758e-003 1.4818803336977146e-002
      1.5260107023590845e-002 -7.9291338982907349e-003
      -6.8041806906005533e-003 -3.9764123649142415e-003
      -1.3907684281900175e-002 7.7234290160831179e-003
      -1.1965595053961969e-002 7.0581304865274704e-003
      7.8311214388720723e-003 1.1667975204295628e-002
      1.0689566514564711e-002 1.6441189194112939e-002
      5.3835191582586039e-003 -9.0940749800408026e-003
      1.2862777677260099e-002 1.4107336608020020e-002
      8.4081002290708230e-003 1.0631746938447114e-002
      7.2904273992791873e-003 -4.6486989474084171e-003
      -1.2682271381887907e-002 3.4834937140996334e-003
      1.4082757792239133e-002 -1.4371965726745851e-002
      1.5774647476674748e-002 7.8947033758956613e-003
      -7.0095181126214072e-003 2.2426345665152174e-003
      -9.5724294668396003e-003 1.5405628685620079e-002
      -1.2773396501888868e-002 1.0243830971402816e-002
      -9.7337795019049531e-003 1.3387995227764848e-002
      8.2402153614896667e-004 -1.5084142564304154e-002
      1.4622935979098698e-002 -8.9846008156362431e-003
      -8.6232555974765229e-003 -1.7797328303653167e-003
      -7.1402385309404890e-004 3.4329745403182455e-003
      2.4591187544785592e-003 2.7621185751737862e-003
      -1.1007625863429281e-002 -8.3926815304347802e-003
      8.1615782644288114e-003 -8.6514538821435265e-003
      8.7725544133897132e-003 4.6212795025914813e-003
      1.2157067285452912e-002 8.5383688792235509e-003
      -1.3436372273316973e-002 -3.3712382613420916e-003
      -1.7203902262164794e-003 -1.2513463077413561e-002
      1.0728862360133751e-002 -1.6186605577677763e-002
      -4.2415409370076150e-003 -5.4250004733449615e-003
      -1.5399539796773838e-002 -1.0269224733317945e-002
      -1.4444648705264551e-002 6.2940315157486446e-003
      3.2194308948061117e-003 9.2569871987185776e-003
      -1.2675041189104707e-002 -1.5962734596043283e-002
      -2.6008997353770182e-003 -4.9818929722695998e-003
      1.3735509749884656e-002 1.5968981991658696e-002
      -9.1041814280490383e-003 1.6974327144200534e-002
      2.6952512885430424e-004 3.7005039930172010e-003
      9.3845281057530500e-003 -5.4113120957456004e-003
      -6.7657730389719317e-003 6.1520082784051701e-003
      -6.2914995506600522e-003 7.2397565115504877e-003
      1.3253634686229407e-002 1.3407613274994415e-002
      -1.6006144080053349e-002 1.0944945604773243e-002
      1.5258251096915107e-002 -1.1094201063275631e-002
      3.9769945045368465e-003 1.5324099554005089e-002
      7.9979332907496974e-003 8.8483401148333647e-003
      1.7339344427012965e-003 -5.2844322850690963e-003
      1.4295709485337437e-002 9.1665133616864389e-003
      5.8403071170602464e-003 -5.2336024915158631e-003
      4.1330713925752313e-003 -2.4454157988938858e-003
      -6.1023215579418064e-003 5.0497523309784862e-003
      1.6726229428154023e-003 -1.5958979033569898e-002
      -2.4512025738227727e-003 -1.4242025601317152e-002
      -1.8209990140480568e-003 8.2131933820779341e-003
      1.2567057568427568e-002 1.4987502231132700e-002
      -1.3223597303203658e-002 3.8513218785280547e-004
      8.5127996040834479e-003 -1.0858452472481097e-002
      -8.7986069336776964e-003 -7.4802090958180616e-003
      1.6149172221343353e-002 7.0435699084727610e-003
      6.6587801094092972e-003 9.3445521636827712e-003
      -7.3137998464239328e-003 4.1234796693943804e-003
      -3.5798014472364168e-003 1.5919903980420907e-002
      2.6781300287386199e-003 -1.3597397737370905e-002
      1.0948500058162005e-002 -1.3687855846727348e-002
      6.1024768597853123e-003 1.0819862033345921e-002
      1.1923948422374557e-002 2.7852388290253280e-004
      -7.7302270665316830e-003 -5.7789949628586374e-003
      8.7511749826633314e-003 1.5754735437392264e-002
      4.8563594076381084e-003 -3.1814584564263798e-004
      -1.4405527999534296e-003 -2.3981326292166066e-003
      -3.9923901502981170e-003 7.6826783534665218e-003
      -1.0473892408116081e-002 1.0272214628495506e-002
      -8.2285360894533890e-003 9.6768621011752275e-003
      1.2216791725403266e-002 -5.9972808086749272e-003
      -8.7909809891907314e-003 -1.4052467376741073e-002
      -6.3253904098500248e-003 9.8403790689803577e-003
      -1.5629281272392409e-002 -1.1557984740655608e-002
      -1.4095016866834295e-002 -4.9111830612965125e-003
      -6.6553405560904793e-004 3.9886439324915814e-003
      8.3702423605886284e-003 -1.3786095606430902e-002
      -1.3498375294164660e-002 -3.8281399341903422e-003
      -1.6377771148817017e-002 1.0273118492832644e-002
      6.0089517727677632e-004 9.2324138934484906e-003
      7.7903340143128785e-003 1.3439047202316819e-002
      -1.5355620501604234e-003 -4.4829367995190940e-003
      -5.0778369711606741e-003 -1.3005570362161555e-002
      -1.5069605674611988e-003 -1.0605514141738381e-002
      1.4108694049527073e-002 9.7465612036837235e-003
      1.6440384745703817e-002 1.5513243505597667e-002
      4.9036980012355747e-003 1.4088795112702789e-002
      -1.3500991626652737e-002 -1.3008749904845259e-002
      -4.4328218018814978e-003 -1.0160648160606901e-002
      -1.9218605858474977e-003 -8.5652575342926879e-003
      -3.3415244909125383e-003 1.0803510002923332e-002
      -9.0749279359382019e-003 -1.5792917729132043e-002
      -7.8615377426511004e-003 1.7708566611216118e-003
      1.2752083623883994e-002 1.2098185135024375e-002
      -1.5046855420169768e-002 -1.3670794550836380e-002
      1.0342381614946890e-003 -1.4483781797599815e-002
      -4.9138195517789114e-004 2.9900309829526540e-003
      1.2838581241237192e-002 1.4344989362853755e-002
      -4.9820865986104784e-004 -6.4144539075177368e-003
      3.7730313152513984e-003 1.3201240850089653e-002
      -6.1335358181170418e-003 -4.3395433390556286e-003
      -3.3349517350682119e-005 8.8228758157273511e-003
      -1.4038283391530770e-002 9.9970337712360947e-003
      -1.1632582615452939e-002 -1.7454553502164662e-002
      4.9770549062570632e-003 1.5713228516645906e-002
      1.0386432963857207e-002 1.5103037030561607e-002
      -3.2016386840708418e-003 -8.8049239597698323e-003
      2.4863633377564011e-003 -2.7237923194509133e-003
      1.7163189279730310e-003 -5.5606664396229393e-003
      -5.7855547935239489e-003 1.4525784508758037e-002
      -5.2829204764763592e-003 5.3749909196579631e-003
      -3.2209984428703221e-003 -2.3132421224651540e-003
      9.1663926132843423e-003 -3.6112529764001137e-003
      -1.0138797854036418e-002 1.0324140024034829e-002
      1.3713103158110593e-002 1.0636680016407983e-002
      5.6221664076275676e-003 6.0674445883165673e-003
      -7.0794548017284872e-003 -4.4256804068316781e-003
      1.4633379616668250e-002 -1.9595230891507370e-003
      8.3122422693705598e-003 -1.4050157296563705e-002
      -1.1687533421908352e-003 -1.2115250470044345e-002
      -7.4750771626313928e-003 1.3378888485525832e-003
      1.3291493175115956e-002 1.3641220376493570e-002
      -1.7776752138795497e-003 1.3881553867451522e-002
      -2.9946280399696990e-003 1.4574829646603043e-003
      1.3283075382533359e-002 1.0207899794680517e-002
      1.2164140414451470e-002 1.9054172821793211e-003
      -1.1575098956145143e-002 -1.8012049513165184e-003
      1.1594991329058245e-002 -7.4292984038433910e-003
      -6.2881111190303963e-004 1.6081917768120298e-002
      1.2299695323624812e-002 7.3849716827555541e-003
      1.0458232608326271e-002 2.5727381837269392e-003
      1.3345776793572031e-002 2.8054295822805605e-003
      1.3663022555990860e-003 -3.7083651725049022e-003
      -4.4192797387825958e-003 -9.4698149468194961e-003
      6.6090285541185528e-004 1.4902122708420461e-002
      -1.1116615117772873e-002 -1.3700145467782228e-002
      -1.4683269388291369e-003 -6.2920329912015205e-003
      -5.7244472909954427e-003 -1.4281907126257170e-002
      6.8879590157656040e-003 7.9616612146375335e-003
      -6.4692163090759201e-003 -1.2965346346873796e-002
      8.0816687152654668e-003 -1.1791302558724343e-002
      -1.4903788990372206e-002 -1.2119509161679684e-002
      -3.5834610845067189e-003 1.1621555256903121e-002
      1.0139581170946012e-002 -1.4637353990125865e-002
      1.0912564402456059e-002 -1.9101447244403080e-003
      -1.1533842719031776e-002 -3.0142394511821634e-003
      -3.9845976815366013e-004 5.1898798233814046e-004
      1.5599928043268005e-002 8.1664395034604566e-003
      7.4069489932646528e-003 -6.0699758352353757e-003
      1.7166621021863667e-003 5.1793333885833352e-003
      -3.9997532390625033e-003 -5.0708588476242496e-003
      1.4383731811909809e-002 -7.2848510167264112e-003
      -1.5769061856266827e-003 1.2416910960808381e-002
      1.3509099260855067e-002 -3.3538024887822576e-003
      1.9909830227631355e-003 4.7966799584605261e-003
      1.1838441198041375e-002 -1.4969780089244589e-002
      5.4839358279740354e-003 -1.1171450121300750e-002
      -1.5646051446921650e-002 -1.5645858651342534e-002
      -1.0008328072564234e-002 -5.3367373223539918e-004
      -1.0975185664582717e-002 -8.6589753313939324e-003
      1.0992648184148966e-002 -1.3873965827865778e-002
      4.5139848270629801e-003 1.2777915208386658e-002
      -2.4366562357066692e-003 -3.3180824358074270e-003
      1.3376129628117723e-002 1.1371695702219768e-002
      8.6751386661841623e-003 2.1868491458727985e-003
      -1.0225746494185508e-002 -1.5557989255396870e-002
      1.1495247346146801e-003 1.6128457390033126e-002
      -4.2269621708867057e-003 1.0383779089904543e-002
      2.8339103295206567e-003 1.5986863269078527e-002
      -8.9144654186944679e-003 -7.3329638827260455e-003
      3.4673464656834237e-003 -2.9374495782342053e-003
      -1.1682540200324743e-002 -1.5078468463208211e-002
      5.0532295906056297e-003 -7.4839107026769824e-003
      2.9574879763852020e-004 1.6301794164113106e-002
      7.6890911729429702e-003 6.9707110057180225e-003
      1.2585317140414424e-002 -1.3605313624701022e-003
      8.4017705607479694e-004 -2.4995929681146793e-003
      1.1809145385605901e-002 -7.7082726851727124e-003
      -1.7414767092883924e-003 -1.0275903592934073e-002
      1.0261284568285902e-002 1.3292310415992735e-002
      2.2216420401721918e-003 -6.9090835631466724e-003
      -1.3953786681408138e-002 4.9268730110846861e-003
      -5.6438719721168835e-003 -5.5712529389641699e-003
      -1.3579711480489316e-002 -8.6321611921985186e-003
      1.3604704065172477e-002 -1.5914374662979659e-002
      5.5939772843754353e-005 6.6381628456959095e-003
      -2.8990302971701101e-003 1.3379448620151989e-002
      2.3894095490555158e-003 2.2139179018707939e-003
      -1.5468261848437942e-002 -8.2784373887428812e-003
      -8.3331819324362465e-003 2.4030811963916300e-003
      4.9521454610860971e-003 -1.5852383696415490e-003
      1.3892932433930787e-002 -1.3310248543414539e-002
      -1.2715696607568609e-002 -6.4095860813253120e-003
      -4.8279948421472768e-003 2.2108016565478502e-004
      -4.4746298654047903e-003 -5.7905207276898671e-003
      1.9484549647342734e-003 6.1278700065733258e-003
      1.0654613029343391e-002 -1.4966901007113910e-002
      4.0972979388214986e-003 9.4272152122562500e-003
      1.2279258174590095e-002 -1.6672924671212404e-002
      -6.7403581885931508e-003 -7.9122929057078503e-003
      -9.0836449547437373e-003 1.1477908416140362e-002
      -1.0217887159920197e-002 -6.3014665741906598e-003
      5.0754738981116437e-003 -1.7321869947882707e-002
      1.3620045506428945e-002 -1.7341796597698966e-002
      9.4879050612442419e-003 -5.6888963320500981e-003
      -1.9773980863959963e-003 1.9264181490961042e-003
      -1.8961692608541268e-003 8.2009533019612706e-003
      1.1533887943402699e-002 1.0301341626932975e-002
      -1.5335188707391874e-002 -6.2715442972072358e-003
      -2.9739960795528432e-004 8.6827024911104757e-003
      6.1459993062448438e-003 -1.3544341366630532e-004
      1.3393101928605825e-002 1.7006934605379276e-002
      2.3809787531525401e-003 7.4881099847778276e-003
      -4.0996830381918670e-003 -2.1337525200706810e-004
      1.4877267104036021e-002 -4.8739945601469310e-003
      1.3762760698420232e-002 5.1131598172038800e-003
      -2.2506717578885125e-003 -1.2161883115448654e-002
      -1.0028140711598551e-002 4.2150769452076566e-004
      -7.9029865189058333e-004 -1.5753887236709230e-002
      -9.4274908566676871e-004 5.9735461858882732e-003
      -4.8336573359828699e-003 -1.2752467986227861e-002
      -8.7297120151251725e-003 -3.2284561701049954e-003
      1.2939974484320542e-002 6.2958727229433312e-003
      8.7786907618848931e-004 7.0894178719887414e-003
      -2.8394261633084956e+000 -2.6607190183831363e-002
      3.9500811288624244e-001 2.9699920498841696e+000
      5.1735982012027981e-001 -9.7235658877778602e-002
      -7.8299325911397294e-002 1.7234509924181340e+000
      -2.2297993785648076e-002 -8.3452104686404616e-001
      5.7355480438861113e+000 3.8091371652705592e+000
      -8.2766204031382448e-002 -3.5424726903379627e-001
      4.6434895007158550e-001 3.6050797314623018e+000
      8.7565881207376683e-002 1.4761032008717585e+000
      8.7800335680345432e-001 -9.3558911715181020e-002
      -7.5355100580028911e-001 -3.2351432148596260e-002
      -6.8318449369805156e-001 -7.2670473206377495e-001
      2.7469401834619939e-001 -1.8749497473514831e-001
      -1.8390654265791806e-001 -2.7388873682937226e-001
      2.5173370492656573e+000 5.9426241243679190e-001
      -4.2690758788984823e-001 -8.8808162705126048e-001
      -1.5742114994159775e-001 -1.2468858067637462e-001
      4.6427938065646970e+000 -7.7681395711715895e-001
      1.3396322367996741e-001 2.2527779050900230e-002
      4.1085545132159780e+000 -1.0569305305999100e-002
      1.2246141701082174e+000 -9.3352565252790332e-001
      5.8275891041599848e-001 5.0140584066256078e-001
      -8.4122611131388178e-002 -4.6250000933833163e-002
      -2.4193900531069851e-001 1.4631761346327252e-001
      -4.1345248807065865e-001 3.9121900652574282e-001
      -9.3115425743157509e-002 2.8203730050553460e-001
      1.3988575402516508e-002 -2.0343767211027783e-001
      4.5309057309118349e-002 7.7232263632909814e-001
      2.4571003387013152e-001 -1.1909946911342910e+000
      1.7873871124756679e-001 -8.7479184547060773e-002
      2.1616555961955852e-001 -3.9166170425823044e-001
      -8.0337174875362305e-001 5.5498556349458561e-001
      3.0019892329677639e-001 -1.0357209807295817e-001
      -1.0599798591725619e-001 -5.8113140651238671e-001
      -1.4460416119587552e-002 8.2794656926898413e-001
      -3.3631229134170654e-001 2.2908598341520719e-001
      -6.2415945965806641e-001 -1.0880049265333929e+000
      -4.5720149144278427e-001 5.4932358610803522e-001
      8.4682382116273580e-001 2.4549632423778023e-001
      5.9773809193365346e-001 9.9883093621243618e-002
      7.2178913702106995e-001 2.8997627848597640e-001
      6.9623876425291498e-001 1.4312445420912734e+000
      -1.7280160470438119e-001 -3.5875624686967345e-001
      -5.3888555202400112e-001 -3.8657709044771038e-001
      -4.3384302035136424e-001 -8.6798146076947746e-001
      1.8551723263498188e-001 1.3482867085069163e+000
      -1.3896933402978611e+000 -1.7336905088603136e+000
      2.0258575771810543e+000 1.6307712214976502e+000
      1.5864588779141367e-001 -1.8229254312886651e+000
      -1.3422313310301848e+000 1.7813034730691829e-001
      1.4554114264020357e+000 -3.0688742569836613e-001
      -1.8021731393843203e+000 4.5470211871801663e-001
      2.2335429188371420e-001 3.1286486722830453e-001
      4.8218952306524571e-001 -4.9674968308398915e-001
      -2.5820423826921396e-001 9.5448468157592370e-001
      -8.6842791056429947e-001 7.1932785291327628e-001
      -1.0297098641017701e+000 2.8835855190548915e-001
      -2.7618746756709379e-002 -2.2341783839656670e-001
      1.0325121400334043e+000 -1.2689763227933243e-001
      1.1637700078960880e+000 4.2441229511442335e-001
      7.7255381824445335e-001 -1.1858322515207840e+000
      4.5980323991312955e-001 4.0101473884123728e-001
      2.3342818636005488e-001 -3.3228164585233777e-001
      -7.5514506568279294e-001 -1.7082164784295006e-001
      -1.0785799813147134e+000 -3.5200291604900608e-001
      2.4495273668427822e-001 2.5717160125916099e+000
      -7.5561286494560931e-001 -7.6040692314895120e-001
      1.2873484219636522e+000 1.6939694241720751e+000
      -2.7997049716505956e-001 -1.7384777837069392e+000
      -8.0708683982814289e-001 2.0389015207125727e-001
      3.0141616324473058e-001 -7.5699800663104355e-001
      -1.1110415791918455e+000 -7.0967962759644598e-001
      -7.3926924538690575e-001 4.0483922721879267e-001
      -1.5449397444392196e-001 -2.2811370686230623e-001
      4.7563794265267606e-002 9.6695851855257850e-002
      -2.4218335161942822e-001 6.7222306424722789e-001
      -2.3115383705840326e-001 1.1122435466942351e+000
      -6.0816301475197655e-002 -1.6591990653216118e-001
      1.2710043640469175e+000 -1.2718704110567447e-001
      4.3260625603123254e-001 -4.1259660708128970e-001
      5.0075617958227667e+000 1.8291628330521112e-001
      1.3373372538642512e+000 -2.1103167898537021e+000
      2.0123093584568683e-002 -3.0340930630972635e-001
      -6.1984986476109516e-001 2.9045648380865702e-001
      2.3554445832206886e-001 -6.1119109656586845e-001
      2.0422266314559917e-001 5.8744822080219439e-001
      1.2839220619586247e-001 -4.1318087098488193e-001
      1.0625446561970022e+000 9.7435846098882128e-001
      5.3375658578821282e-002 -6.5438170126980166e-001
      5.7424790153229377e-001 -1.1143506654835418e-002
      -5.5049865163190748e-001 -1.1496926924590423e+000
      6.5184668637717791e-001 -1.5551578484794657e+000
      -6.1244752174385775e-001 -5.4451771821138667e-002
      -6.3504957254466432e-001 1.6407393794112290e+000
      -7.3331487212488417e-002 -1.9263011636338295e-001
      -3.9594884855792783e-001 8.0465770368601963e-001
      -2.4051952806349416e-001 1.7394106401063192e+000
      -7.5541628468500210e-002 -2.7680591800076049e-001
      3.8966692226131461e-001 1.0785102881304608e-001
      3.8783668075632383e-001 1.7938050065758274e-001
      5.5837439967252394e+000 -2.9794703266043249e-001
      8.3878610676640819e-001 4.4413445122649420e-001
      -3.5235010794125160e-001 6.3375648941802018e-002
      -2.3385954128966080e-001 4.3662358547331220e-001
      2.9744113167694408e-001 -1.0475535384709920e-002
      -2.4198755560109136e-001 -1.5751142423736730e-001
      1.0739490611510802e+000 -2.8719660371649781e-002
      -2.1840031119747280e-001 4.4524133995186682e-001
      -4.5409454517956577e-001 -3.4345350258201407e-001
      4.4815630123119582e-001 2.4572086136778934e-001
      2.9604926045606927e-001 1.8284812497608929e+000
      -3.2437620276951723e-001 8.8211573879636573e-003
      6.9614002632862909e-002 5.3891694847090232e-001
      -4.9654820002454209e-001 -7.1279185954219823e-002
      3.7693644644942259e-001 9.5518089013427648e-002
      -5.7976277164337967e-002 1.6489118104068207e-001
      -1.5510587040599116e-001 -8.4498529827986024e-001
      -1.7527283241636871e-001 -3.9778302401648671e-003
      -5.5714354262061239e-001 4.9279988701742994e-001
      1.0967321848110613e-001 1.1562882913469408e-001
      5.2788719982711143e+000 6.5204013292627228e-001
      1.0196066580426992e+000 8.9179181501182381e-001
      1.1056360428305188e-001 7.9916047325164818e-001
      2.6967768029911054e-001 2.6320739506170132e-001
      -4.9166302324551520e-001 2.9590744042098310e-001
      -2.7050057747204309e-001 -2.3865042782163526e-001
      3.7717420903386539e-001 2.9761271073460766e-001
      5.9584220009557688e-002 -8.0354389920835689e-001
      -7.5081555897979227e-002 -2.4517478583343616e-001
      -1.2525932179922131e-001 1.0496832485873404e-001
      1.2014993614316008e-001 1.1811540726354997e+000
      -1.3590657500179182e+000 5.0948112753178432e-001
      2.3678944682901704e-002 -1.2290363386796527e-001
      4.7203213048274978e-001 -2.5031141905357512e+000
      -4.0598367718705752e-001 2.7886163068572972e-001
      7.2998741855354959e-002 -5.2146533398687211e-001
      4.3154872282062801e-001 -1.6294327760903369e+000
      -1.2914991812968607e-001 -4.4035984856652458e-002
      -3.6768571833152230e-001 4.4413827804066242e-001
      -2.6189445478731860e-001 -4.7897258805035170e-001
      1.2839313660271641e+000 6.3007089386722601e-002
      3.9446201724352076e-001 1.2131338704480124e+000
      1.2081566369922525e-001 -5.5733071302782144e-001
      1.3220453539195884e-001 1.7607909818082487e-001
      -5.7184782102561349e-001 -4.5151573078674351e-001
      6.9084909790392346e-001 -6.3965784381941074e-002
      8.4482279104070176e-002 5.9670117533290538e-002
      -2.4473920980450214e-001 9.3132221491797618e-002
      2.5565967874527873e-001 -5.0111745003218344e-001
      -1.9333462541227273e-001 9.2159552362916074e-003
      1.4383156024533370e+000 2.4313397942152293e-001
      -9.7598171976567771e-001 2.8554397909176515e-001
      -2.8679097023024747e-001 3.4752355832306470e-001
      -2.7376582058413840e-001 -5.5652916138605590e-001
      8.5293330114256283e-001 8.8356281380870216e-001
      -6.1446860748803767e-001 2.7799123387066863e-002
      -6.3416194743588672e-002 -2.7190809153092738e-001
      2.0814920811499243e-001 -2.7861734105941122e-001
      -8.2237287092441921e-002 7.8333596468451050e-001
      2.7093066784743919e-001 7.4907317235134196e-001
      -5.5647020330263676e-003 -8.5788232617219871e-003
      -1.6121732654334694e-002 6.4904281918510172e-003
      -6.3721473596346813e-003 -3.1760538950014452e-003
      -1.1236458330967460e-002 5.0846349986239606e-003
      -7.4766355391184024e-003 -2.7916795977024930e-003
      -8.1090747677077836e-003 -1.1874710317062621e-002
      1.5659381156793748e-002 1.4135236373641688e-002
      -1.0954215714236226e-002 7.5332287819275890e-003
      -4.2545979709658968e-003 -2.0729219347285154e-004
      -1.0392163942148425e-002 -4.9785222098277940e-004
      -1.4967080276392555e-003 1.4106976271239672e-002
      2.0689729451122737e-003 -1.2670365339439989e-002
      -1.0868129918634147e-002 -1.3570113939865744e-002
      -4.9531801158627453e-003 -1.3373277258019720e-002
      1.5285944279460886e-002 -8.0353000851245325e-005
      -1.9452690954806270e-003 -9.8990169935363886e-003
      -1.5025637702361296e-002 5.4505088628255078e-003
      1.4579140545740443e-002 1.5451559302550237e-002
      -1.4828734708309803e-002 3.8482694760665734e-003
      -1.5820971753947914e-002 -1.3274992021721489e-002
      -8.0278062170920424e-003 -6.9511866366492835e-003
      -8.0949654579262516e-003 -1.2386387082119624e-002
      1.2543445694531856e-002 1.2831080412395904e-002
      9.2912020162755279e-003 -1.4164342791724262e-002
      9.4363720215280677e-003 1.4193446976447364e-002
      -8.1189809411385105e-003 1.3801513164559121e-002
      -3.0051493561674717e-003 -1.2792330494230312e-002
      1.5645469450016266e-002 -2.6161050103410714e-003
      -8.1911838802418424e-003 -9.8599469681680298e-003
      -1.8345358650120945e-004 1.2511648559448729e-002
      1.6772797618661801e-002 -9.5253037889961919e-003
      1.1439794509734138e-003 1.1913723280318712e-002
      9.1752206514270022e-003 1.6382520294858458e-002
      8.6954007113063010e-003 -1.1122705413419972e-002
      -4.2486638666625939e-003 -2.9507725368761867e-003
      -1.2535117647813062e-002 1.4776022607785023e-002
      -1.2952053926474385e-002 -1.3088694377136102e-002
      -8.6072179552483339e-003 -1.3581686840004998e-003
      -6.1032582459133230e-003 -1.4117629311796321e-003
      1.3889499722324495e-002 3.0349894151673103e-003
      -1.5151267100595616e+000 1.4495106716276398e+000
      5.7908306632553097e-001 6.3858781088783223e-001
      3.6155872624408369e-001 1.6944792699597175e-001
      1.8194527861356443e-002 3.3184160849120975e-001
      6.7977194974515486e-005 -1.9616399028812984e-001
      1.2328028655614809e+000 8.1058921844660525e-001
      6.1256804005794543e-002 1.9944917377344415e-001
      9.8587108758003333e-002 7.9898823167116184e-001
      2.4400415004948756e-001 3.4732222805321511e-001
      -3.5463991413481159e-002 -5.3359277648645353e-001
      -7.2205027180274439e-002 -3.8028834487949074e-002
      -1.4365758138202309e+000 -1.4134482299477086e-001
      9.8474245600720711e-002 -4.6142477454223935e-001
      -1.0201639251066118e-001 -2.3135690071830395e-001
      5.3530791039778169e-001 1.2508555969671520e-001
      -2.1084983958368761e-001 2.4126307568413212e-002
      -4.5338698686729045e-002 2.5099195403482908e-002
      9.8769348709613336e-001 -1.7188822102881934e-001
      2.3526024721021099e+000 2.7647709590898916e-002
      9.0897165623155085e-001 -3.5500741399698346e-002
      3.2136989013459236e+000 3.2615175044099737e-001
      -1.6502742074403859e-001 -3.5042751445915399e-001
      1.0601507368237693e+000 -6.2842934495638236e-001
      -8.0781404371874554e-001 7.9685061983204208e-001
      -3.4521447101960652e-002 -6.2452642188187424e-001
      -5.4258062290544959e-002 -1.9761705218541337e-001
      -1.5620751661709973e+000 2.4904369844835871e-003
      2.8427898854598049e-001 2.1743985782256825e-001
      3.6967488461807135e-001 9.6896802102185364e-001
      -6.9888264804757960e-001 -3.5036874012421282e-001
      -7.7063198065257688e-002 -3.8339948006220070e-001
      7.9541465962012337e-001 2.4996988516802768e-001
      6.3475784895383947e-001 8.1217324392760337e-001
      2.1476008709508695e-001 1.4646533557773547e+000
      3.5437789189017715e-001 -3.1642332608602181e-001
      5.8592450717479339e-001 2.3851443641564926e-001
      -4.5824831839991814e-001 8.5519647205435034e-001
      -1.1856301909595804e-001 3.6914473502214423e-001
      4.0386465729978754e-001 9.2146104939767282e-001
      2.8041036432373256e-001 -1.1213531346169349e-001
      1.0867797080745536e+000 -2.8050185000497576e-002
      -2.2543250799695036e-001 -4.3914410583327929e-001
      1.6318277817357274e-001 -7.8424024601067355e-001
      -8.4758576032263633e-001 -3.5197014410491395e-001
      -3.7214680777641695e-001 -6.8791063223548932e-001
      -3.9672910139710088e-001 9.3547946071381916e-001
      -1.2122393324851435e+000 -8.6783343630395404e-001
      1.3882349070455571e+000 1.0977354929014609e+000
      1.3629368856173065e+000 -2.3515644571341640e-001
      1.2148445228884410e-002 -2.5119385249250892e-002
      1.0648461428153067e+000 -1.5392363360305691e-001
      -8.0833498357020750e-001 -2.0544359413702201e-001
      7.4230888166941544e-001 3.6760532530009910e-001
      1.9022551707734120e-001 -3.4865689459111289e-002
      1.2406012160139715e-002 -2.8261280334656030e-001
      -9.8875507427888545e-002 -4.8032888376636343e-002
      -1.2155984255810393e+000 5.2761872146770417e-001
      1.1989785779310719e-001 -1.2829714027214775e-002
      1.8115175945233952e-001 -4.3190190429369968e-001
      8.0184380889361884e-001 -4.5572379703560073e-001
      2.4450607699984332e+000 -3.4721916261006312e-002
      8.1790179250192641e-001 -2.1240505556791892e-001
      6.5798095014719371e-001 -1.0586903051272394e-001
      -9.2248086624335790e-001 -3.3609238445749773e-001
      1.5369649310358688e-001 8.4579183440218220e-001
      -3.4774826364975242e-001 5.7974941597706176e-001
      -4.3932090011331820e-001 -1.7434032254280747e+000
      1.1755586188547325e+000 4.8681996317150528e-001
      2.1216128844089735e-001 -3.7709262585594013e-003
      -4.7377150134719920e-001 -8.6309340710369470e-002
      6.7427998168041758e-001 6.3675548868585674e-001
      -8.6600058963849602e-001 -3.4905185400334000e-002
      -1.4797453487117918e+000 3.3699666379373544e-001
      -5.0314935820080497e-001 7.5180731656262612e-001
      -5.1849875077120910e-002 -5.9054561472927425e-001
      5.6773199558597179e-002 -9.9057217996985025e-001
      -3.1653940270259323e-001 2.6317282698412525e-001
      2.0093454975940558e-001 4.6060386121448460e-001
      -5.7421867744486454e-001 3.4568826432479126e-002
      5.5181456125248063e-001 -5.2183098551921447e-001
      4.8417369376801282e+000 -6.7682783184496764e-001
      -1.2130304814794948e+000 7.2806304863833526e-001
      -2.2062725224872098e-001 4.9567038575569359e-003
      -1.0067992825410161e+000 -1.9512762208960921e-001
      1.2828412789639890e-001 3.2140826806252487e-001
      -4.5442925571770106e-002 -4.4664644210738491e-001
      1.2199401136540058e+000 -8.5194090257313715e-001
      -1.0274924339161828e+000 -1.0944296386724492e+000
      -1.9851733800989022e-002 2.0780635534696187e-001
      -7.0744053539444163e-001 4.8289926218997081e-001
      4.4425334976848996e-001 -3.3885916584606393e-002
      -5.6785529950444735e-001 4.5712964198815687e-001
      -5.9782823042656252e-001 -1.2621499812548539e-001
      5.6144819980619376e-001 5.6299279984788431e-001
      -5.7250215337416654e-001 -3.5116984041887600e-001
      4.0849865994488921e-001 5.0060872264862233e-001
      -3.7310556120641042e-001 2.0828906300081165e-001
      -3.4765212259806619e-003 4.3676444859713454e-001
      6.7521359153407412e-001 -1.9801916981390880e-001
      -8.4789943168447646e-001 -6.3426569881366479e-001
      2.1769006313598998e+000 1.7672931599470146e-001
      -2.8123500627569431e-001 -3.8176172567323169e-001
      1.0225827215148836e-001 -1.3544813257351409e+000
      -1.0998002420851391e-001 -6.5045515647163377e-001
      -1.0970520287777603e+000 -7.6610525178599620e-002
      1.1639134780348184e-001 -1.5306392145973977e-001
      7.4716544464252377e-001 -2.8081947174188671e-001
      -2.7782268471624627e-001 7.2513845761162055e-001
      1.4206922150883336e-001 -7.8246222727288794e-001
      4.8899737590094298e-002 -1.9533760754257789e-002
      -2.6594300269373916e-001 -4.1363109873570814e-001
      -4.7196710801842645e-001 3.5983176142885154e-001
      -3.3399909523422289e-001 -9.2048397163902812e-002
      -1.8775345022666609e-001 2.6686820314867798e-001
      -3.4562765478009183e-001 4.4315216478298114e-001
      -1.0559470196504317e+000 1.5472763417328792e+000
      -4.7197740343149486e-001 -1.9662269249875332e-002
      -2.6229037697578855e-001 8.5666413005167863e-001
      1.2232110575217814e+000 1.4627008857096277e-001
      9.3201194936789489e-001 2.4322089443312431e-001
      1.9310427437288606e+000 1.9362900972750638e-001
      -4.1607849557615151e-001 -1.6757034786012601e+000
      5.2084640227374845e-001 -9.9129328423609520e-001
      -2.4682399899747787e-001 2.7331120038165119e-001
      -1.1446987956220824e+000 -1.8007304673007685e+000
      -1.0002517302932433e-001 6.0860491647050519e-001
      8.8507442186705088e-002 4.6121940117847576e-001
      3.4298934012673366e-001 2.7105037301393897e-001
      1.9511202915439613e-001 3.4888888334443258e-001
      9.4234022080229352e-001 -1.6678091595771161e-001
      -5.7546499984583743e-001 8.4435247843855510e-001
      -1.5693719070887507e-001 1.9354639654521355e-001
      -3.4451360357662253e-001 5.4402120231814323e-002
      -1.5182031217746814e-002 3.0894171169237220e-002
      -2.5624921119121430e-001 2.7694935106104585e-001
      -8.6408076850102011e-001 1.5666133606203054e+000
      2.0582269417938392e-001 1.0880227036515964e+000
      -1.8751541356006302e-001 -6.0007448792920151e-002
      1.4176265165834687e+000 1.3774624915269609e-001
      3.9080975589564038e-001 4.4702027359488272e-001
      -3.6425708275593878e+000 -7.9619791696913600e-001
      -8.8935473872395965e-001 -4.9256931657709802e-001
      1.1138635287956928e+000 7.1509762712182889e-001
      -1.1278735063783747e+000 5.8237655942543487e-001
      -2.3889347103178127e-001 -1.8796518905979300e+000
      -7.5921940952737232e-001 8.3534134504550206e-001
      -8.7291080522617259e-001 -1.3098460704772585e+000
      5.5026761338301311e-001 6.1005179821848587e-001
      4.7080201144915246e-001 -7.1115491505235229e-001
      5.3108759647406034e-001 -1.0437703777434876e-001
      -2.1228640108149630e-001 1.0920341783357941e+000
      -3.3078704145340077e-001 -5.4288723767903269e-001
      4.3787709432016346e-003 -3.5334028879208634e-001
      8.7556739879964063e-001 -8.9452349654936580e-001
      -2.4333005191231294e-001 -1.6506508892501212e-001
      -1.0837589059081280e-001 -1.6065293866202676e-001
      2.0316654233142792e-001 7.2684188605580557e-001
      1.8785653408076844e-001 -4.5895713506899566e-001
      1.0655606656917933e+000 -1.1036580875803730e-001
      6.9680631188460707e-001 2.0865551299241489e-001
      -2.0152830397843500e-003 -3.5051160003721055e-003
      -4.4632316013397330e-003 1.3683140542232934e-002
      8.5871120778977864e-003 9.9564837338426905e-005
      -2.5671152658034231e-003 -1.3530167432104469e-002
      -2.4455734168240981e-004 -1.5554895749806705e-002
      1.7731930506677294e-002 -1.9502667900669196e-003
      1.1415321164090157e-002 -7.9704371568124549e-004
      1.5365542438807349e-002 -2.4601287637813352e-004
      -2.2157704536029258e-003 3.6465385791779798e-003
      8.2302557814172023e-003 1.0898210208199043e-002
      4.0000642515534953e-003 7.9444482856191045e-003
      6.3921520436187778e-003 -1.1729735602199946e-002
      3.9426783258197703e-003 -1.2222012304760213e-002
      3.6477676641659038e-003 8.1665816229487473e-003
      -1.2405895979647313e-002 -1.3555163049915326e-002
      -8.5940837020193617e-003 -1.5580091368286380e-002
      -7.1386041106066226e-003 -7.4335827347150494e-003
      -4.4611957081823308e-003 5.2171582088225230e-003
      -1.5726464834741785e-002 7.7842289748427159e-003
      -8.6336918389167423e-003 6.6909073745437938e-003
      -4.8567704155955699e-003 -1.4145335059346286e-004
      -1.2997566430836034e-002 1.1854017687335560e-002
      -1.5426704453269109e-002 1.2541321702810981e-002
      9.9813482481145768e-003 -5.5445514431774695e-003
      -1.3741353490648579e-002 -1.5951702184565524e-002
      4.6173679092211374e-003 -1.4327122366442596e-002
      8.3244952983758270e-003 -1.4792194011777433e-002
      9.5638695102726063e-003 -1.6213788534916663e-002
      6.2503815772810096e-003 1.5863377012089640e-002
      6.3627986958334198e-004 -1.1939009712053885e-002
      -1.4478976577686722e-002 7.2589986771590363e-003
      9.3123022411679066e-003 1.0181718847790160e-002
      1.6176612473339114e-002 -5.7587375607370539e-003
      3.9339338948975369e-003 -3.0834849469786583e-003
      -1.4736678463433713e-002 -7.8327412310429650e-003
      7.2683789495875534e-003 -4.6848551977340764e-003
      9.5787249281325485e-003 1.3418238363864280e-002
      -8.0242507126308121e-003 1.7488099506198371e-002
      -1.4420049154916207e-002 -1.2598673632945022e-002
      1.3854879876360917e-002 -1.0243980732726357e-002
      -2.1626761914836594e+000 9.9464017035193175e-001
      -7.6152512634772513e-003 4.5340244806385821e-001
      -5.5457670415644278e-001 -5.6379250057281682e-001
      5.1361077272704496e-003 4.0175653934528960e-002
      -2.6085633147335296e-001 5.1018084752574400e-001
      -1.3654337930293881e-001 7.3948181273618990e-002
      4.3676551791763402e-001 -7.8703230565993121e-001
      6.1721705720711273e-001 -1.2639467162508198e+000
      5.4263640385942291e-001 2.7887242667464412e-001
      -5.1480338894446920e-001 -5.6961923791136138e-001
      -2.5932655483470135e-001 6.5453213696464208e-001
      -5.3684392054541186e-001 6.5070818336311814e-002
      7.0198266675279752e-001 -2.9198530860000860e-001
      4.7663632811229519e-002 3.2338857881989390e-002
      -1.0372940526091914e-002 -1.4463603427105401e-001
      -4.9839699239124374e-002 1.9561405017097386e-001
      -7.4913944396304610e-001 -1.8072408275031407e-001
      -2.7993031331143652e-002 3.5652414597329464e-002
      9.8280829366396882e-001 2.0608178314203524e-001
      2.7767587088550100e-001 1.3958390523106690e-001
      6.6880093845545296e-001 1.5452056524727951e+000
      4.2027212467848230e-001 4.2650498743695420e-001
      -1.3786195313853695e+000 -5.4860426654560934e-001
      -1.3083862193158753e+000 3.9753816943517128e-001
      9.1123337220658052e-001 1.0694218655634040e+000
      -1.0550551600695771e-001 -1.5938828135786239e-002
      -1.6860793189221339e+000 -8.7689385962478317e-001
      9.5073483850954155e-001 9.1697910089311185e-001
      6.4274361576673461e-002 9.6838374705061880e-001
      -7.1647368152287660e-001 -5.6561531465470882e-002
      -2.9773965879914899e-001 2.1381097295510118e-002
      9.3185770740006046e-001 -4.9282599356592005e-001
      5.8488319587100246e-001 7.1982514415262280e-002
      3.3003225592775415e-001 6.2407428549208521e-001
      3.6859635809688940e-001 9.3510385118500450e-001
      1.5743895410576667e-001 -9.0297472989744032e-001
      -1.1296239015301952e+000 -1.1449479128775975e-002
      2.4583231787984203e-001 -2.4137692229293137e-001
      2.1147876898913498e-001 -1.5589601932925388e+000
      4.6652874068783845e-001 1.9364637112339009e-001
      9.8237393247803584e-001 9.3978216652242874e-002
      -5.1875564001843610e-001 -1.8898551081739029e-001
      1.6545678484465165e-001 9.9355366275615462e-002
      -3.3547017869801043e-001 -4.0563914040109539e-001
      7.6545116679239755e-001 1.6794257734574194e+000
      2.1858735425032594e-001 9.9783361354738376e-001
      2.6914360515320396e-001 3.6530985320367533e-002
      1.3615622481390028e+000 -4.3123857479039257e-001
      5.1863507420805455e-001 1.9521369958112955e+000
      -1.9627133087339482e-001 -6.5202922458491053e-001
      1.1075646064849978e+000 6.2553716764446465e-001
      1.5682478525567076e+000 -1.5544917587954545e+000
      -6.0639260835087450e-001 2.6276895532053512e-001
      5.9730292008880725e-001 7.2445965628506148e-001
      -1.2630258986105009e-001 -8.5350566838701325e-001
      1.2443830076080571e+000 -2.2256739584533918e+000
      -1.0118122490146080e-001 2.6400237338247934e-001
      -2.9508420371800346e-003 1.3862589917135140e+000
      -1.0983474702602232e+000 -7.0450217876128474e-001
      2.5407744671663246e-001 -2.6867226527526650e-001
      4.9303149718277961e+000 -2.7418863668149424e-001
      9.3395242436521775e-001 -7.6661271739998690e-002
      -2.8068064718229030e-001 1.0326916742080432e+000
      -9.8341811813344004e-002 1.2782857388904195e-002
      1.0003606401674132e+000 1.6752565474119747e+000
      5.8054861052974915e-001 2.1849485955370332e-001
      -3.1465680308226113e-001 5.5122002279609927e-001
      -5.8089712378745595e-001 4.1721720045007354e-001
      -6.2187887545690601e-001 9.5997684379761739e-001
      -1.3667956107736698e-001 -6.6809953762381011e-002
      -2.2761803529596095e-001 -4.7374717088465018e-001
      4.6410501166155238e-001 -2.0454186505704355e+000
      3.1444702438759414e-001 6.0710316743082771e-001
      -5.1296981590271584e-001 -7.3123259484960179e-001
      3.7396030401921694e-002 -1.6174134583761818e-001
      1.4846773269960336e+000 -1.4280229561634734e+000
      7.4155717563658963e-001 -4.3370423599288144e-001
      2.5205595785026219e-001 -6.1844832538914296e-001
      -1.0952015533745616e+000 -6.1041180183562960e-001
      -3.5424647564006956e-001 2.7044198798553243e-001
      2.6941207459749150e+000 4.2480025960982482e-001
      -7.6752538032489614e-001 2.0333464308162261e+000
      9.1496460867051632e-001 -4.8273333756896980e-001
      -8.6559731262002138e-001 6.8785914834185291e-001
      -1.5709245195729307e+000 -1.6416059122003313e+000
      -1.1691190265444981e-001 -9.1695845082742322e-001
      1.0961294171960601e+000 3.8715041298138619e-001
      -1.7415809194716765e+000 -1.4130167987307356e+000
      -2.5053867146285314e-001 -3.2222634399790245e-001
      1.5209667368852575e-002 -1.2318945848895772e-001
      -3.3117783406578055e-001 8.8381871774085063e-001
      -1.7596861776594953e-002 1.6411523859701282e+000
      1.6430436949957783e+000 -7.5637579792809417e-001
      4.2634067963407957e-001 5.7755827607570265e-001
      1.3124174273142974e+000 -2.6643306514136778e-001
      5.1306987412074190e-001 1.1221656586201423e+000
      9.8775786979228369e-002 2.3149186960793020e-001
      1.0983898083420612e-001 4.8088144184757975e-001
      7.1392590699418801e-001 4.8346190013433998e-001
      -1.1489577609904418e+000 1.5833582726849753e+000
      5.6162179328060207e+000 9.3522366232078213e-001
      -1.0196992728880529e-001 -1.2958940387003499e+000
      2.7550425684536575e+000 -1.6274758540333041e+000
      2.5349290859602186e-001 -1.1623954619816514e+000
      -1.5066001314323043e+000 -2.3094692660743328e+000
      1.2025546419981004e-001 1.5287225672181401e-001
      -9.0209861334371499e-001 -4.1147788637603808e-002
      -2.6790606718290100e-001 2.0983186070246296e-001
      -4.7196172377121187e-001 -8.1883438794936036e-002
      -2.7950918471959152e-001 -6.5517463495658912e-001
      8.0773044098458058e-001 -9.5481371409939242e-001
      9.0525723566890470e-001 4.2071227650892634e-001
      1.0794619411571702e+000 9.0225831681931767e-001
      -1.0990845343212327e-001 1.4907126681239067e+000
      -2.3553515083942989e-001 -1.3161299391706713e+000
      -6.4251334776010849e-001 2.1699201451804253e+000
      -3.5949903698433255e-001 4.0124343285400226e+000
      2.1951061055534397e-002 3.6801550841937519e-001
      3.6276770934639468e-001 1.2105889139042163e+000
      -1.7010429026769702e-001 2.0001535932451620e+000
      -7.0935529722472090e-001 2.8311896722481555e-001
      2.4994907597663599e-001 -3.1500050297110351e+000
      8.8553867011135756e-001 -1.6000140733186035e+000
      -4.4541331914738252e-001 -4.2633981066139373e-002
      -1.3897653685382063e+000 -1.5733957594782451e+000
      3.7282962933387043e-001 1.7707153134093787e+000
      -1.5872282248912595e+000 5.2625607371087246e-001
      5.6169009641824537e-002 7.0750252713789052e-001
      4.7500980920107205e-001 -5.3567758688710376e-001
      8.3552794585130041e-001 -1.0403834396500107e+000
      -3.7631429055550565e-002 7.4099509983816636e-001
      1.9216432699658681e-001 -8.3843369136212686e-001
      4.1925689728602755e-001 3.4648473589346496e-001
      -1.9403202865644620e-001 1.3917463465920290e+000
      -8.2143648483851439e-001 -9.3521198534412842e-001
      2.0219563009714545e-001 8.6748996431825420e-001
      1.6424764409891174e-001 4.0092956711647059e+000
      1.1446898786593478e-001 3.2668355273340505e-001
      5.5428372344172527e-001 4.7658898399727007e-001
      1.1311126253222483e+000 2.0213365948558621e+000
      -4.0231234375974436e+000 8.9153916126587518e-001
      -3.5327040153066025e-001 -1.6357337366916127e+000
      -4.8734103549135915e-001 -9.5792622315235632e-001
      -5.2024922951794672e-001 5.6921636427041022e-001
      -2.9402760630030317e-001 -1.9590729397517334e-001
      -2.5232543506567997e+000 4.1897206560225386e-001
      -5.8948968586362160e-001 -5.0067996436797146e-001
      -9.9437823024925642e-001 4.2731377455908043e-001
      7.4228363397173180e-001 6.5892140809380262e-001
      4.4950232252527123e-001 3.8460623551879747e-001
      -5.7443998342521230e-002 6.5432935509685219e-001
      -8.7281449917407039e-001 -4.3487473045712921e-001
      2.5331770178939089e-001 4.8179730337448856e-001
      4.0908252334526679e-001 -4.3791862152037181e-001
      -8.6466888787479401e-001 -1.1556644460729426e+000
      -7.2067238543319567e-001 5.2849792612320245e-001
      5.3428506477094717e-001 1.8829822032715093e+000
      2.7667183332462064e-001 3.1326566035901965e-001
      -3.7914548688688343e-001 -4.4658786853407839e-001
      2.9908194964483259e-001 -5.5413582191585278e-002
      -3.4066943417586116e-004 1.5841454061798293e-003
      -9.3562617970323371e-003 1.5119872436109699e-003
      1.0137171906508950e-002 2.5605241088238577e-003
      5.3532252163973624e-003 -7.2709000383444477e-003
      1.4776349562773619e-002 -1.4446926840212126e-002
      -1.2811036936759862e-002 -5.5056159304704884e-004
      1.4414426235284248e-002 -1.5423186049489453e-002
      -4.8234004893926220e-005 -1.9252123732147715e-003
      -4.9983390342578987e-003 -6.9752314455887605e-003
      -2.8587242207829991e-003 2.2610697924895055e-003
      -1.0084468408012466e-003 -1.5340634483847610e-002
      1.6463352279297079e-002 1.2819960420990959e-002
      -9.5837846953582013e-003 -8.2040158085047617e-003
      7.9566832741633682e-003 -1.0199007434046102e-002
      7.1011410396042236e-003 -9.9621232370164826e-003
      -1.5464963151178405e-002 -1.4236849373557338e-003
      -4.9464667644724333e-003 1.3713737904915188e-002
      2.7229637764457680e-003 1.1456909176597901e-002
      -1.2640847670116069e-002 1.1819602799213702e-002
      -3.4851453655192037e-003 1.4238459319734236e-002
      -9.6292698314821065e-003 -1.3621215547773100e-002
      1.1495488965265355e-002 -3.2100053349355985e-003
      1.3108588718077177e-002 6.6523025780197724e-003
      -7.7586789371368297e-003 -1.3096092662815986e-002
      -1.6342821889139329e-002 8.9789582327938424e-004
      -1.6122599011244562e-002 4.1686794032757372e-003
      6.6295092583514639e-003 -1.2298159917709869e-002
      -2.9949483454257486e-003 1.5635938831249984e-002
      -4.3350219672116629e-003 -1.4673797853959345e-003
      -1.0310437933895118e-002 4.8127475781729262e-003
      2.5630199865024701e-003 -1.0125315582106399e-002
      -1.3802954342114586e-002 1.6661787021398998e-002
      -2.1396586478840852e-004 1.7082271240523559e-002
      1.3863599963073422e-003 -1.3206450600093558e-002
      -2.3301967078027939e-003 -6.1084514220748395e-003
      1.6873580715908124e-002 4.0097409486632360e-003
      -1.5105382531310262e-002 6.3288172840590623e-003
      8.0617441238968056e-004 3.2063692911899941e-003
      -5.9317855410689164e-003 -1.2596180411449187e-002
      -6.3456928668208078e-003 6.9075485504860746e-003
      -2.9905307549755729e+000 5.3782780360879434e-001
      -1.5297417819025822e-002 4.0943553212890693e-001
      -5.9406934070995931e-001 -5.2452519344843873e-001
      -7.1100047764718233e-001 2.0045020067047206e-001
      -1.0510510835045432e+000 4.6162646497811305e-001
      -9.9708567255418390e-001 5.6091529057851919e-001
      -7.6633447959733270e-001 6.3070828774209142e-001
      9.1994469447332505e-001 3.6154589409474264e-001
      -7.2940848573299355e-001 1.9995886220695683e-001
      -2.7589276773822335e-001 -6.3845026800275706e-001
      1.9693507277242953e-001 6.8845971455062782e-001
      -2.9067532977302318e-001 -1.9287199879063305e-001
      -6.2513892189045253e-002 5.2699692127069020e-001
      8.6860111278642668e-002 -7.9901929747656064e-001
      -2.9939924398817341e-001 -8.5626868075645651e-002
      -1.9772998061950314e-001 -4.5580397056527104e-002
      -6.1741026288544043e-001 -9.4997018280838411e-002
      1.6421015920987998e-002 -1.0088513715093732e-001
      6.0175885993901689e-002 -1.7261466560249189e-001
      -1.6012391511835814e-002 4.3983899586050601e-001
      8.7072770240269293e-001 -1.3405859512430210e-001
      -8.9081539023001616e-002 9.3781986247630023e-001
      -2.8317242677149368e+000 -8.3315581975684117e-001
      -1.1776270355307927e-001 2.4941311353565718e-001
      1.8830135275450757e-001 2.5995107959856814e+000
      5.9849051594032443e-001 -5.6294812043032783e-001
      1.3050100299486458e-001 -1.6272547969595230e-001
      3.4290592924241836e-001 4.0826981394835832e-001
      -4.7852855845025216e-002 5.7133926529379142e-001
      -4.2329112858930729e-001 2.4778221181135288e-001
      -1.3904690771722799e+000 -7.8752351372454776e-001
      8.8666370212482981e-001 -4.2581346505718981e-001
      -9.4802474430247563e-001 3.3272284861689616e-001
      3.5802347956414116e-001 1.0276923752194325e+000
      2.5144273175527471e-001 7.5035186461167955e-002
      1.2905723882120299e-001 -1.1539756529598371e+000
      2.3134275646014588e-001 -1.6667400123559919e+000
      -7.4207628603745857e-002 -4.2507122986473228e-001
      -4.2463683377416836e-002 -1.7460317261766451e+000
      5.4071342580530324e-001 1.3230299063491342e+000
      4.1423459069874369e+000 -6.9140865802960161e-001
      -6.2075543873453776e-001 6.5304547377594735e-001
      -1.1260850350736156e+000 -1.1056558799316065e+000
      3.8240528285674019e-001 7.3269591706225778e-001
      1.5076873142653595e+000 2.7817626593778577e+000
      2.3465199002370707e-001 -7.9999591387723901e-001
      1.7645009452925833e+000 1.1250856117614620e+000
      9.5809881418287279e-001 -5.0857265597697043e-001
      7.4795784447045532e-001 -4.3893534922899524e-001
      -3.1110922425074261e-001 1.9394520593167711e-001
      -9.4120961139623024e-002 -1.0442221600307271e+000
      9.1909485125069623e-001 -3.8133875580767274e-001
      -1.1424415220516868e+000 8.9788994711896830e-001
      1.0725060758812994e+000 -2.8429247851551043e-001
      2.7152080863956457e-001 -1.8231940394726778e-001
      6.2212900330437326e-001 -6.3317955677269477e-001
      4.4278299972737190e-001 -1.4488997163295771e+000
      1.2659229560326174e-001 -8.7216223168407025e-001
      -1.3385785942012773e+000 -1.1133704768991390e+000
      -3.5977641987585851e-001 1.2675545235617578e+000
      6.2952622823897384e+000 -1.6347096402638375e+000
      -5.3147140525236947e-001 1.0197802497383448e+000
      -5.4050137257547137e-001 2.8783103374142525e+000
      1.5162071507795523e+000 2.9453435856577953e-001
      2.0652270094961294e+000 -9.8822071306730663e-001
      2.9824578016850462e-001 -3.9449618370580913e-001
      -1.1490744801929631e+000 2.6325517476541034e+000
      -5.6623481301014922e-001 1.3116115072407881e-002
      2.2075013189160766e-001 -6.3877429337172123e-002
      2.8015051058662638e-001 -1.3014841097075636e+000
      -6.6490249948417168e-001 2.1638234144558264e+000
      1.6139703332563509e+000 2.1415158565060538e-001
      7.4030977806262532e-001 6.4536384706656391e-001
      1.3339646537686248e-001 -1.5108653806903971e+000
      1.9288881081140458e-001 1.1112824484788343e-001
      8.1930382958480164e-001 -2.2487956204830004e+000
      -1.1996622356949764e+000 2.6338374791967012e-001
      2.0239407834599044e-001 -8.7869392773122412e-001
      -9.4106555037833839e-001 8.9016294037716259e-001
      -7.0451221877449877e-001 -1.0666072351989948e+000
      4.2137734178995290e+000 -6.0971667636955751e-001
      6.1099736702726636e-002 1.1297192410756354e+000
      8.0391151149507556e-001 2.4849728015811254e+000
      7.3243706419078380e-001 3.3767946734758664e-001
      6.8883661151282305e-001 -1.5507300124672092e+000
      1.7998815158161507e-001 1.2789500793029585e-001
      -1.9063226881073900e+000 -1.2318397856105461e+000
      3.4838280070558458e-001 1.6582008253611741e-001
      -1.9614320791399725e-001 9.3526782984245049e-001
      -2.7980843313220627e-001 -5.0857007677602928e-001
      6.8823384752465938e-002 3.6546721655901854e-001
      -5.4986609690397881e-001 7.3461473919052434e-001
      4.4609766913936150e-001 -6.6998107328132328e-001
      5.0574937936581854e-001 -1.0924010940536462e+000
      -1.6624885443242904e-001 2.0597267285705767e-001
      -4.3771398774173292e-001 6.4474370162530481e-001
      -1.2061306518212926e+000 -2.9910128767369093e-001
      1.4565350905756122e-001 -8.5555477671512148e-001
      1.1806025176463268e+000 1.8587320293484209e+000
      -4.8015554374142966e-001 -1.4555527622731137e+000
      4.1774751912360761e+000 4.1987550819840647e-001
      -3.5999464739983039e-001 -1.2824416918909451e+000
      -7.5108564080272311e-001 -6.5145483086447720e-001
      -8.8246226180409178e-003 3.8080540391997403e-001
      7.4524658626302442e-001 3.8496482610476912e-001
      -3.5205893116814929e-001 5.2957060215152318e-001
      -1.3937238924003239e+000 -5.9903903530824687e-001
      -8.4588703203034332e-001 -4.1831068249440904e-002
      4.1954616695882924e-001 -9.0575032159548396e-001
      1.0558409961897433e+000 -2.0406835002635848e-001
      6.2930032286013138e-001 -8.3410353536347681e-001
      5.1957158291604866e-001 -4.4651885535760183e-001
      1.3912352970011310e-001 -1.2499253055089833e-001
      -3.7873762966197050e-001 1.7384609118460626e-001
      -4.8044152158467146e-001 3.9618930121298396e-001
      -2.3263494554359018e-001 6.8055240872962008e-001
      1.5733234001654242e+000 -6.4004862889330327e-001
      6.2435460144544874e-002 -4.4418905091403416e-001
      -1.2159574559067343e+000 -1.1238039411013845e+000
      1.3512351508521372e+000 1.4610525437908142e+000
      -1.7040008324093974e+000 1.9088139860797972e+000
      -8.6901473251118841e-002 -2.0077675692190202e+000
      -1.5317308529874498e+000 -2.8139112261743175e+000
      -1.5429706358128006e-001 1.2873596201667351e-001
      -1.6400916913961283e+000 9.8900601102107055e-001
      -2.5697071675972523e-002 2.8499348358575011e-001
      4.2370957064781400e-001 3.4231283507936111e-001
      -2.0992659452625517e-001 -1.9748393698571051e-001
      3.5460458709605513e-001 1.8518405622957063e-001
      -2.3049300629880000e-003 -5.2629006505720083e-002
      1.9583915649944142e-001 -6.5954173700668486e-002
      4.7086013557977230e-001 -2.5000469807601994e-001
      -5.1601861423092388e-001 5.3873155764914449e-001
      1.7437093225996905e-001 1.3609743562194569e+000
      -4.1650987360223257e-001 -5.0120748978430929e-001
      9.3533029785249536e-002 8.6024913258083049e-002
      -2.0875431365618008e-001 1.3174310559855129e+000
      1.0379952104423451e-001 -1.2124615032518538e-002
      -4.6366997552796857e-001 -1.4930943275263173e+000
      4.2876329283711290e-001 3.2634356438799390e+000
      -1.9263922662804114e+000 3.5062883708462855e-001
      -1.1852538301813317e-001 -5.9603857529127391e-001
      -4.6821909371274500e-001 -2.9239813839053879e+000
      -2.9230665520085103e-001 4.8203191450156710e-002
      -7.9782203726061074e-001 1.0906776887261911e+000
      -1.2624102024167119e-001 3.5769786020064631e-001
      9.5021355256465501e-001 1.2050555520430499e+000
      9.0428191056572363e-002 -6.1668233233233238e-001
      1.7992414142163357e-001 2.3892406026038254e-001
      4.2613355948331272e-001 -1.5890467067726363e-001
      -3.7436936439201446e-001 -4.6673781461345454e-001
      2.1354795973251764e-001 9.6795581835445121e-002
      -1.8567719102483699e-001 3.9821533220053568e-001
      2.3140842692204283e-001 -1.0024877722023233e+000
      -1.1180314484876184e+000 -2.3216061845422298e-001
      -1.0917362917603155e+000 4.5981685220752500e-001
      -2.4640951272909101e-001 1.0923483758189436e+000
      8.2222408481551851e-002 -6.4284173891893925e-001
      -5.3530039507769800e-001 -6.6594242826865591e-001
      3.0127556383176574e-001 1.9525085379830525e+000
      -3.0366617606032787e-003 1.4372034942261093e-002
      2.8527706054589982e-003 1.3877238131383047e-002
      7.8828407941560728e-003 9.3069114194411582e-003
      1.1532072291608166e-002 5.8441944384519176e-003
      -1.4770303350986863e-002 -2.8569151677688464e-003
      -1.1134252199137183e-002 1.5280564514275806e-002
      9.0127719453466492e-003 -1.0487060743635380e-002
      1.2481909654895348e-004 -4.4704806828355561e-003
      -1.2769414329273750e-002 -3.2290145550607535e-003
      1.5910904910689361e-002 -1.0782197230158942e-003
      -5.1042966462600653e-004 1.2003815784555722e-002
      4.7420211300845292e-004 1.8801525641487502e-003
      -1.1326467060541840e-002 1.3370105509508286e-002
      1.1798302328277615e-002 -1.5818424049231967e-002
      1.0761994825750441e-002 1.0422074806567891e-002
      -7.6468945451021236e-003 -3.0879938226333480e-003
      -1.0296163898634738e-002 4.0043760401017731e-003
      -1.5254442641188828e-002 -1.5608339851088759e-002
      1.0797452805415187e-002 1.1515141451107469e-002
      1.0658853397802674e-002 -1.8009112618858521e-003
      -9.4164888095055310e-003 -1.8740932955634935e-003
      1.3521591710763390e-002 1.0453777619606799e-002
      -1.3017078516652755e-002 6.9775071892854501e-003
      -8.8385831635529842e-003 -4.5864666104570790e-003
      6.8101103428880837e-003 -1.1633363490184337e-002
      -4.9879502659058604e-003 1.3156058354888344e-003
      1.2410954745585961e-002 1.0778469817987154e-002
      -5.9788129654897203e-003 1.3004881608759005e-003
      5.7730148643042973e-003 -4.6983435041422668e-003
      -9.7551946571316911e-003 -9.7067844756970546e-004
      8.8138179146965119e-004 1.0420894086541892e-002
      -1.3864350955585650e-004 -1.5366741541122464e-002
      1.5239657219446357e-002 1.5039666520980522e-003
      -1.1549495217856325e-002 1.2305595063973556e-002
      8.0825184624975909e-003 4.0502313476874951e-004
      6.2388868719937002e-003 1.0184814679769562e-002
      6.4946164972411449e-003 -9.3778568857105261e-003
      -1.8988965423055056e-003 6.5414927038599802e-003
      -1.1207633296284679e-002 2.8784437212351775e-003
      -1.6070165056197645e-002 -9.4210158504365229e-004
      -2.7995999424262585e+000 -1.1524975337663756e+000
      -4.3773005072675492e-001 9.1065293372252643e-001
      1.1740289214607212e-001 -3.7269650365315182e-002
      8.1228749256078162e-002 3.8561146042887615e-002
      -6.5230640574663667e-001 1.4927059559045669e-001
      -1.1140265240677606e-001 -7.9091526032009432e-002
      2.5126139480363774e+000 1.2789133559973556e+000
      7.6233567464223839e-001 3.0412379136250150e-002
      -1.1867988569413627e-002 6.3698572715605684e-001
      -1.9410905526619238e-001 7.3942708674253199e-001
      -5.9726053476117239e-003 -3.7947474427092454e-001
      -2.6403411839226620e-001 -2.7043499520299003e-001
      -8.6772167585590887e-001 4.8757758707161702e-001
      2.1639645359077450e-001 -2.3293749406998820e-001
      -1.0360486235652437e+000 7.3231208888059701e-002
      -6.1930687828034214e-001 -5.3233923874665268e-001
      1.1897056315954837e+000 -1.2567017160626004e+000
      9.2117639818831809e-002 -1.0279762203036025e+000
      -5.2470980746784257e-001 -4.2364525306359768e-001
      3.0294490560688703e-001 8.6892181848326788e-001
      1.1511546624423774e+000 -8.2340441737856218e-001
      1.5799677210403248e-001 5.8891807620871206e-001
      4.4470332441432908e-001 -9.1698449916167810e-002
      1.7532550879824444e+000 -1.5015285266741202e-001
      6.4610935998618579e-001 2.2904317583921738e-001
      -4.6382686790293071e-001 -4.2182071334016102e-001
      3.5585461627300821e+000 2.9133000065369701e+000
      2.4929208685162396e+000 -3.9197118535695419e-001
      -1.5723850253511185e+000 2.2813560117668690e+000
      9.1294918115207313e-001 -4.7553398237651257e-002
      -7.2052722694122096e-001 -4.5656989093172995e-001
      3.1061925084860476e+000 1.2577364673703453e+000
      -9.3284410895771386e-001 -7.9399752538840657e-002
      4.0076251560145970e-001 -8.9729939730530495e-001
      4.7505178212268170e-002 9.1206291753707858e-001
      -1.9601904582390623e+000 -4.9635669676269306e-001
      2.0087884074720090e+000 -1.3221463319436744e+000
      6.2190201633807361e-002 -5.8758833263970878e-001
      7.3597541062963831e-002 5.6041063584711404e-001
      4.6387360576944808e-001 2.1536799140909949e-001
      5.2264697195042711e+000 -4.8171633746820386e-001
      2.0582972406231431e-001 -1.2042952449023081e+000
      -4.2484313998238915e-001 -4.2158263313839384e-001
      1.9795910425272649e+000 -2.8575541788459924e-001
      3.8861893678353634e+000 -3.5765348234409622e-001
      -3.6142648385534532e-001 -6.8682016673530821e-001
      8.9904722209510635e-001 4.0442698929441514e+000
      3.5095079101432467e+000 -9.2968952849107400e-001
      8.6878729966903667e-001 2.3441919795248913e+000
      2.3675582112706191e+000 -5.7492010668685167e-001
      -6.9010152472707609e-001 -1.4993218775404402e+000
      3.9823582732101008e+000 6.0980165324255342e-001
      7.1711275820988751e-001 4.7808763691994535e-002
      5.2348280358847288e-001 -1.1098410261300169e+000
      -6.4567314233031659e-001 5.6475416543900003e-001
      7.7624904039785403e-001 -8.5555698984954076e-001
      1.7780282745757320e-001 7.8561470163380631e-001
      3.4522097323965287e-002 3.8719284903170267e-002
      -1.5972118948689771e+000 6.6434597127555473e-001
      -5.0170070504400832e-001 6.7827909222733485e-001
      5.0384264904498943e+000 2.3602844258031173e+000
      -6.0426840393730885e-001 7.0284445313550092e-001
      2.1616155853132313e-001 -1.0764684764885348e+000
      -1.0107292924003548e+000 6.1839014780559898e-001
      9.9567300178627327e-001 -1.2090624877927196e+000
      1.8946689768619090e-001 -1.0009118412828781e+000
      -2.0444736858656198e-001 -4.6212052181750241e-001
      5.7177082660948908e-001 -9.8681016259499835e-002
      1.2227655662048971e+000 2.0954810716176917e+000
      -3.5950010236837859e-001 -7.9388129057616635e-002
      1.4793021452296998e-001 6.6687630492212979e-001
      1.7103751672614937e+000 9.1470986898392137e-001
      7.8832982668443752e-001 -5.1500141370258901e-001
      1.6152772788873115e-001 -1.9420963739517236e-001
      5.8360151117617642e-001 6.6869748308814958e-001
      6.6492474234991483e-001 3.2005576463702540e-001
      -1.0242303426263124e+000 5.8073344514208924e-002
      -5.4983671001292346e-002 9.4844127551451085e-001
      5.6287021383590619e-001 -7.2051183974524191e-001
      -4.6872763233900927e-001 6.0052549712983294e-001
      8.0738096473137055e+000 1.8074380875163274e+000
      3.0525736746436127e-001 -4.3280982904465631e-001
      1.3202886576481005e+000 2.5367477527255711e-001
      -5.3032011452437100e-001 -9.7408046707022980e-002
      1.0649263891833824e+000 -1.0323040930758001e+000
      1.2602759913251779e-001 -1.4804344081749893e-001
      -1.7949821460337465e+000 7.8816105973091144e-001
      -3.0993966087942859e-001 -1.4863861591670113e+000
      1.2317310825513770e+000 7.7992593031434021e-001
      -6.3407427816880224e-001 -2.8996114046944349e-001
      5.0686916911859881e-001 3.6464719810880386e-001
      6.6858489930789655e-001 -6.5787060734602787e-001
      -2.0049949523130942e-001 4.6005715220627807e-001
      4.3966475986500508e-001 1.0399567664478238e+000
      -7.5837257173204567e-002 -9.2988041543116395e-001
      1.6357749881463396e-001 6.3766168473912244e-001
      -1.2373703845884190e+000 1.0512175018291592e+000
      1.5091247168759650e-001 7.4698743714551608e-001
      -1.0221020213312120e+000 6.5094391157452458e-001
      -7.1669633468593286e-001 2.8959504828991489e-001
      6.4717387156282342e+000 -1.2248580488133662e+000
      -1.8284213005629030e-001 -1.1050450509015486e-002
      -1.7833815019198174e+000 1.6001649345961748e+000
      8.9395943844805448e-001 6.8810414151700050e-001
      -8.1140415212929598e-002 7.2605559447217771e-001
      -1.3997255693152785e-001 -1.1118384285732326e+000
      -5.2678235172073051e-001 1.1746679837104661e-001
      -6.5851421418595868e-001 1.1212537048644151e+000
      6.9295226999310600e-001 -2.5756760628230624e-001
      -3.0229529067306179e-003 -6.9904422468396665e-001
      -1.8855632904976569e-001 4.0038359648098371e-001
      2.4667664823470467e-001 2.0003461984034673e-001
      5.7306782931797184e-001 5.1176985155346844e-001
      -1.3615431534661568e-001 -1.0913932350272344e+000
      3.0340483753275388e-001 6.7432640512506670e-001
      -9.5483013009439366e-001 -5.4407612143607809e-001
      2.9035075210620331e-002 -4.8910655385613061e-001
      3.6894734012260413e-002 -2.5917829201204716e+000
      -6.1551497354789075e-001 9.3562514293236732e-001
      6.4824526391684112e-001 1.9892450004067677e-001
      2.6832276649993809e+000 -4.9543649432096931e-001
      -1.8186702062935758e-001 7.1603128086297696e-001
      -1.0798738332341054e+000 6.2316401070513516e-001
      1.0552102064125402e+000 -2.7500273324597391e-001
      -1.2652080529372589e-001 8.2441903852718867e-001
      1.8246170235585851e-001 4.2467785491511811e-001
      5.9197059372273538e-003 3.4158404934939540e-001
      -4.5000342940128635e-001 1.1140929339871060e+000
      1.0021019341377289e+000 -1.3332763685408013e+000
      -5.2812548312726770e-001 -4.1049255834018944e-001
      -3.4215316529897460e-001 8.0227746727891369e-001
      4.6713538983809871e-001 3.5995138533028259e-001
      2.2052154242411406e-001 3.3837598505947053e-001
      2.7254576196546992e-001 -4.3752474341859476e-001
      2.2681235628248874e-002 -8.3099651285574588e-002
      -8.9009454867439775e-001 7.4734576231680594e-001
      -7.6602483192609405e-001 3.2830276478841142e-001
      1.2589563666630710e-001 -1.9450857717714463e+000
      1.4897732122088511e-001 6.0435630690924746e-001
      4.6051023594358394e-003 -1.0253141309163214e+000
      -1.8137122754036161e+000 -1.8433441389208438e-001
      -2.4578779744426513e-001 1.5413402189701738e-002
      -2.6589586770891238e-002 1.0376583211033011e-001
      4.1320135249448675e-001 2.6539172056243510e-001
      -4.2891684909987177e-001 -1.0610330436996653e+000
      1.3230618284472284e-001 3.2190491221054357e-001
      5.9585217510675914e-003 5.7696461198719728e-001
      -2.7725992155784855e-002 7.4455120952696519e-001
      -3.0453322974718550e-001 -2.4393616894159052e-002
      1.1933847729656584e+000 8.5245632355629652e-001
      -4.0785197586136068e-001 -1.1727089614902373e+000
      5.3510782592795833e-002 -4.2220781851767702e-001
      -2.7461856028406728e-001 -1.9896859558044255e-001
      5.8439155110862541e-002 -8.1535426328646368e-002
      -5.0694712423964949e-001 -5.1803330374741885e-001
      -6.3392658752884423e-001 -8.7205138609607619e-003
      5.0571756829656811e-001 -5.3008510440425793e-001
      1.4410608872144520e-001 4.8191829249065093e-001
      1.8382846348113530e-001 -1.0590997716575558e-001
      4.8127396881252055e-001 -1.1298718268383863e+000
      -1.2053053598281269e-002 -4.1734171507302152e-003
      -7.7279204018786303e-004 -1.2915905732524128e-002
      -2.1405455491149438e-003 6.8563746985322175e-003
      8.2557909553052315e-003 9.9741428597436513e-003
      -5.5681513962724475e-003 -1.6534425137683960e-002
      6.3510366883505207e-003 -5.7891427025871028e-003
      -1.6745559623371320e-002 -2.5120679531172399e-003
      8.0383399633892749e-003 -2.1759575291401302e-003
      9.3043922789947976e-003 -1.6494703397510573e-002
      6.0597799848285767e-003 -1.5768289129741316e-002
      -1.0540062738135467e-002 -5.1751347230925178e-003
      -1.1163723503812110e-002 -4.3052832912024728e-003
      -7.3018932438606533e-003 2.0037590187361857e-003
      -1.5061485396255582e-002 4.5798486395723448e-003
      -1.3813943579509798e-002 1.3014298240088373e-002
      -8.5283147045875137e-003 1.4071828801874629e-002
      1.0881274223206758e-002 4.1830118776083978e-003
      -5.2207882337971722e-003 9.3567571658068581e-003
      -2.8009998037392837e-003 3.8721081760460449e-003
      4.8318718259239887e-003 1.7446587885303684e-002
      -1.2240982366548480e-002 8.1774712442823968e-003
      -1.0903540267722958e-002 1.5363515434928266e-002
      -1.1194732622844731e-002 -6.3470868635067497e-003
      -7.0566298358871581e-003 -4.8971786017551651e-003
      3.3162210700065075e-004 -1.6275914893987185e-002
      1.7396462750841588e-002 -1.4586105977829365e-002
      1.0175527493101532e-002 -1.0020151088437618e-002
      5.3375990903398217e-004 6.1988626990628400e-003
      -1.5129775731098962e-002 1.2524176511119020e-002
      1.0604790480068377e-002 -5.1698862756911568e-003
      -1.7404199566061311e-002 -1.1419766756321803e-002
      1.3206481330494478e-003 1.6499574127948106e-003
      9.9661968533147037e-003 -6.1464622388578329e-003
      5.3655109904584379e-003 1.1574618151870707e-002
      2.9576054632493697e-003 -1.7878415767052344e-003
      -9.6767990035933199e-003 8.7162820070699823e-003
      -1.1183258435958569e-002 -1.7621852970708729e-004
      -7.8975540439126767e-003 -1.3909535947794326e-002
      1.2135311686048891e-002 -1.1384911097255795e-002
      -1.3676040252511358e-002 -1.2745350941660231e-002
      -7.2393997315012204e-001 -1.5533275544709140e+000
      2.3869534588963335e-003 -3.0499133948229085e-001
      1.7825355094261705e-001 1.5042616392109878e-001
      5.7913554970679149e-001 5.3885711081328314e-001
      6.0381472191861463e-001 3.2654826025202005e-002
      -2.6179582289638426e-001 8.3734811262039222e-001
      3.9489165450901037e-001 -7.3752507601718240e-002
      1.0001143496309255e+000 -4.4605977157428484e-001
      -1.1374715793698023e+000 1.6690098965160050e-001
      1.3805597779388050e-002 6.3653257102811431e-002
      2.5107452683543180e-001 -1.3752804552673445e-001
      3.8818461132276977e-001 -6.6764069586958597e-001
      1.4680200782791239e-001 6.7057355724200596e-001
      2.1345603701035334e-001 -4.8572305706897945e-001
      -6.4093014779408497e-001 1.4954820998453550e-001
      -4.5729632530326719e-001 -9.6497933745268827e-001
      7.9230730703880003e-001 -4.3579161952154660e-001
      1.3197996326639233e-001 -1.0781950399434519e+000
      1.2526365393056824e-001 6.8009114378032598e-001
      -1.9762347700599547e-001 -5.7970898516329450e-001
      -5.7736725757845930e-001 -1.7106068092484257e+000
      5.5965669811145602e-001 1.0016583320758995e-001
      1.8697253539698924e+000 7.0078653708498462e-001
      1.3562258530091738e+000 -3.6812958159710851e-001
      -6.7417069938919083e-001 -4.2351900773453194e-001
      -5.3834560352537295e-002 1.5621290155059002e+000
      8.9811171641765430e-001 2.3349695811932007e+000
      8.4014320020021716e-001 -6.2242255170975580e-001
      -1.2239625347966070e+000 7.4485804147094070e-001
      1.6682784018933923e+000 8.3589311620988635e-002
      5.7056884585350420e-001 3.7413007783428209e-002
      1.9002557885642164e+000 -4.2428140828305255e-001
      -7.3823964617042970e-001 -1.1312365248439404e-002
      1.7531899550119723e-001 -3.1426546580562292e-001
      -7.2261320836998200e-001 -3.3830055353872990e-001
      1.0133481258878495e-001 -5.8694291653993069e-001
      6.4885711971715498e-001 7.0735506453187869e-001
      -2.1449651453513949e-001 3.4537422136382473e-002
      4.6137398157646708e-001 1.5037324739412026e+000
      1.3853082621540594e-001 -5.9501035585718309e-001
      -2.4258525143532430e+000 -7.8644592219050757e-001
      3.6017772746807986e-001 2.0951196052711876e-001
      7.5225664534436201e-002 -9.1211272525557829e-002
      8.0313841699349242e-001 -7.9114370056656458e-001
      3.4582763113674109e-001 -3.4621851374277030e-001
      1.6452402651201192e-001 1.6975837252097121e+000
      1.2389992887889842e+000 2.1961463867603452e+000
      -3.2291156150803801e-001 1.1274272649210874e-001
      -2.2965593381139713e+000 5.9007298379326800e-001
      1.5104212285639087e+000 -1.4348181987284370e-001
      3.2167952460482618e-001 -1.1485012209371077e+000
      1.5708763738872309e+000 -8.6404154064028771e-001
      -2.4963505833172522e-001 3.0141632546124525e-001
      3.6923720488441109e-001 -4.8074031116734572e-001
      7.6917774983567749e-002 2.6934467729876499e-001
      -5.2661450432864965e-001 3.9445885677972281e-001
      1.6651700215948482e+000 1.0512859669218073e+000
      8.6500891162865304e-003 1.3943015966359225e+000
      -7.5465128821222838e-001 -2.5626808437204790e-001
      -3.3336572565336142e-001 1.0996026141138239e-001
      3.8050123319136326e+000 2.0747876494777162e+000
      2.3623411331755531e-001 4.4263056368779835e-001
      1.3688196679376812e+000 -1.5790095235305424e+000
      5.4304473541081499e-001 -4.0089866397811430e-001
      -6.0756149744092980e-001 -9.4968225084252100e-001
      3.2774826519740827e-002 9.8823524690800080e-001
      7.1275052088371899e-002 6.8963363055340871e-002
      -2.9509327011619485e-001 -1.1002808033558371e+000
      -3.9417773751542196e-001 -9.1799447956966918e-001
      7.0915625474479638e-001 -3.0642706646212942e-001
      9.3213311562073353e-002 -1.1591228109501865e+000
      -7.1470954975848294e-002 -5.9875972929917720e-001
      -6.4973466886423659e-001 -1.5055385032610177e-001
      5.4164389531478951e-001 -6.2708376987491854e-001
      -7.2930019565465753e-001 1.2990470055976511e+000
      -7.2513580622753349e-001 5.8981016076164683e-001
